tree
version=v4
num_class=1
num_tree_per_iteration=1
label_index=0
max_feature_idx=78
objective=binary sigmoid:1
feature_names=Spread_vg Over/Under_vg Week day_num games_played opp_games_played is_home rest_days opp_rest_days rest_diff total_line temp wind div_game qb_change opp_qb_change is_dome_or_closed roof_outdoors roof_dome roof_closed roof_open roll_TD_p roll_Cmp_p roll_Att_p roll_Cmp%_p roll_Yds_p roll_Int_p roll_Rate_p roll_Sk_p roll_Y/A_p roll_NY/A_p roll_ANY/A_p roll_TD_r roll_Att_r roll_Yds_r roll_Y/A_r roll_Bltz_ad roll_Hrry_ad roll_QBKD_ad roll_Prss_ad roll_1stD_dn roll_3DAtt_dn roll_3DConv_dn roll_3D%_dn roll_1stDOpp_od roll_Opp3DAtt_od roll_Opp3DConv_od roll_Opp3D%_od roll_TeamScore roll_OppScore opp_roll_TD_p opp_roll_Cmp_p opp_roll_Att_p opp_roll_Cmp%_p opp_roll_Yds_p opp_roll_Int_p opp_roll_Rate_p opp_roll_Sk_p opp_roll_Y/A_p opp_roll_NY/A_p opp_roll_ANY/A_p opp_roll_TD_r opp_roll_Att_r opp_roll_Yds_r opp_roll_Y/A_r opp_roll_Bltz_ad opp_roll_Hrry_ad opp_roll_QBKD_ad opp_roll_Prss_ad opp_roll_1stD_dn opp_roll_3DAtt_dn opp_roll_3DConv_dn opp_roll_3D%_dn opp_roll_1stDOpp_od opp_roll_Opp3DAtt_od opp_roll_Opp3DConv_od opp_roll_Opp3D%_od opp_roll_TeamScore opp_roll_OppScore
feature_infos=[-17.5:17.5] [29.5:53] [3:22] [0:6] [2:20] [2:20] [0:1] [4:15] [4:15] [-8:8] [28.5:54] [-4:90] [0:44] [0:1] [0:1] [0:1] [0:1] [0:1] [0:1] [0:1] none [0:3.25] [13:33] [24:48] [49.449999999999996:77.25] [101.75:362] [0:2.5] [42.075000000000003:133.32500000000002] [0:7] [3.6500000000000004:10.875] [2.8275000000000001:10.553333333333333] [1.8250000000000002:11.583333333333334] [0:3] [13:38.75] [34.5:219] [2.5250000000000004:7.5499999999999989] [3:25.25] [0:10.5] [0.25:7] [3:17] [12:27.5] [9:18.5] [2.5:9] [16.699999999999999:62.850000000000001] [7:27.25] [9:18.333333333333332] [2:9.5] [19.533333333333335:60.333333333333336] [7.5:43.333333333333336] [5:41] [0:3.25] [13:33] [24:48] [49.449999999999996:77.25] [101.75:362] [0:2.5] [42.075000000000003:133.32500000000002] [0:7] [3.6500000000000004:10.875] [2.8275000000000001:10.553333333333333] [1.8250000000000002:11.583333333333334] [0:3] [13:38.75] [34.5:219] [2.5250000000000004:7.5499999999999989] [3:25.25] [0:10.5] [0.25:7] [3:17] [12:27.5] [9:18.5] [2.5:9] [16.699999999999999:62.850000000000001] [7:27.25] [9:18.333333333333332] [2:9.5] [19.533333333333335:60.333333333333336] [7.5:43.333333333333336] [5:41]
tree_sizes=1606 1714 1709 1810 1697 1710 1707 1708 1794 1812 1707 1701 1710 1719 1806 1598 1705 1603 1713 1601 1714 1713 1706 1817 1918 1798 1720 1802 1926 1694 1597 1695 1608 1692 1576 1684 1581 1708 1696 1718 1606 1611 1926 1713 1817 1612 1810 1921 1605 1815 1715 1715 1702 1666 1810 1813 1710 1617 1605 1797 1821 1599 1718 1823 1819 1799 1796 1710 1719 1805 1789 1712 1812 1612 1799 1804 1701 1716 1815 1814 1828 1826 1816 1606 1803 1922 1917 1714 1800 1819 1824 1509 1812 1616 1821 1715 1715 1821 1712 1790 1719

Tree=0
num_leaves=15
num_cat=0
split_feature=0 8 38 1 56 11 72 43 26 28 70 57 63 54
split_gain=51.5764 7.39783 10.0696 7.08996 5.81639 5.16281 9.63289 5.11511 8.27371 5.85583 4.92747 4.54199 2.93536 1.71043
threshold=1.0000000180025095e-35 10.500000000000002 2.2916666666666674 44.750000000000007 84.437500000000014 64.500000000000014 36.650000000000006 42.750000000000007 0.70833333333333337 2.7083333333333335 13.125000000000002 2.4166666666666674 116.87500000000001 214.87500000000003
decision_type=2 2 2 2 2 10 2 2 2 2 2 2 2 2
left_child=1 2 4 7 -1 6 -4 8 12 -10 -5 -11 -2 -7
right_child=3 -3 5 10 -6 13 -8 -9 9 11 -12 -13 -14 -15
leaf_value=0.017500000000000005 -0.035555555555555549 -0.0074509803921568628 0 -0.015164835164835166 -0.0099270072992700721 0.039281437125748504 0.030282485875706217 0.0082051282051282051 -0.020186915887850456 0.01921568627450981 -0.039055118110236223 -0.006229508196721311 -0.013928571428571429 0.023307086614173231
leaf_weight=5.4999999999999982 5.7500000000000018 4.9999999999999991 8.0000000000000053 8.9999999999999982 6.75 8.2499999999999982 8.7499999999999982 5.7499999999999991 5.2500000000000027 4.9999999999999982 6.2499999999999991 6 5.5 6.2499999999999991
leaf_count=22 23 20 32 36 27 33 35 23 21 20 25 24 22 25
internal_value=0.000597322 0.0151852 0.017844 -0.0139506 0.00226721 0.0238596 0.015905 -0.00863568 -0.0122464 -0.00293578 -0.0252769 0.00522523 -0.0253744 0.0327397
internal_weight=97 48.5 43.5 48.5 12.25 31.25 16.75 33.25 27.5 16.25 15.25 11 11.25 14.5
internal_count=388 194 174 194 49 125 67 133 110 65 61 44 45 58
is_linear=0
shrinkage=0.02


Tree=1
num_leaves=15
num_cat=0
split_feature=38 69 8 25 29 78 72 48 26 6 37 12 24 53
split_gain=13.3639 11.8367 8.91293 10.5277 7.46276 7.15856 8.18785 7.01731 6.44214 6.30205 6.35457 5.17652 5.12192 3.0432
threshold=2.4166666666666674 22.125000000000004 10.500000000000002 214.87500000000003 6.9583333333333348 21.125000000000004 37.675000000000011 24.125000000000004 0.70833333333333337 1.0000000180025095e-35 3.1250000000000004 8.5000000000000018 62.037500000000009 66.050000000000026
decision_type=2 2 2 2 2 2 2 2 2 2 2 8 2 2
left_child=1 7 3 5 13 6 -2 11 -7 -6 -11 12 -1 -5
right_child=2 -3 -4 4 9 8 -8 -9 -10 10 -12 -13 -14 -15
leaf_value=-0.0027138420393148909 -0.011404738498731882 -0.033196521492257089 -0.018258268219106349 0.034216366994773269 -0.0055424735783276445 -0.024796057584999347 0.019967731287327758 0.016455919877368708 0.00096087376671630752 0.0024800868611090355 0.031625153848082344 0.0075321311786978344 -0.027710067597777152 0.01384555763331953
leaf_weight=6.4993552714586347 4.999370992183688 6.9990373849868766 5.7495874166488639 8.2487099617719633 8.7485536932945251 6.9984453171491614 9.2487787306308729 5.2496399432420722 8.2489453852176648 6.4988429993391037 5.7487157136201859 4.9995041489601126 6.9993485510349274 5.4992369711399069
leaf_count=26 20 28 23 33 35 28 37 21 33 26 23 20 28 22
internal_value=0.000449699 -0.0104987 0.00529609 0.00746045 0.0149086 -0.00126621 0.00881765 -0.00361415 -0.0108156 0.00721884 0.0164674 -0.00947526 -0.0159304 0.0263712
internal_weight=100.736 30.7469 69.9892 64.2396 34.7441 29.4955 14.2481 23.7478 15.2474 20.9961 12.2476 18.4982 13.4987 13.7479
internal_count=403 123 280 257 139 118 57 95 61 84 49 74 54 55
is_linear=0
shrinkage=0.02


Tree=2
num_leaves=15
num_cat=0
split_feature=0 67 71 44 10 10 78 29 44 11 47 11 78 67
split_gain=53.3699 9.03665 6.74048 7.29902 6.67065 6.41558 6.83877 7.29423 6.03093 5.66193 3.86229 3.05272 3.03076 1.17678
threshold=1.0000000180025095e-35 2.4166666666666674 5.5833333333333348 17.875000000000004 43.750000000000007 44.250000000000007 24.291666666666668 6.9875000000000016 18.583333333333339 56.500000000000007 39.087500000000006 49.500000000000007 21.375000000000004 3.8750000000000004
decision_type=2 2 2 2 2 2 2 2 2 8 2 10 2 2
left_child=5 8 11 -4 -5 6 7 10 -2 -7 -1 -3 -11 -13
right_child=1 2 3 4 -6 9 -8 -9 -10 12 -12 13 -14 -15
leaf_value=0.012391182414634591 0.015353365195858093 -0.014695091311535791 -0.030571362236536927 0.013856829527640231 -0.016984294432185222 0.0031768633235387212 -0.0086898851233345922 -0.0025683318814341432 -0.011914769914148454 0.014533672799119522 0.034765441041879383 -0.036998983337139024 0.034982950324322075 -0.022760428212801921
leaf_weight=8.2468207478523308 4.999028965830802 5.7480520606040981 4.9986318349838248 5.4991036802530271 5.4978339672088623 4.9981820434331894 7.748450204730033 7.4983135461807242 8.747453495860098 4.9965170323848751 5.4975319057703009 10.995223373174666 9.7463607192039472 4.9985536038875571
leaf_count=33 20 23 20 22 22 20 31 30 35 20 22 44 39 20
internal_value=-0.00167423 -0.0158768 -0.0209279 -0.0107708 -0.00139583 0.0132911 0.00716062 0.0130496 -0.00181477 0.0221118 0.0216715 -0.0282254 0.0283318 -0.0328423
internal_weight=100.216 51.4839 37.7374 15.9956 10.9969 48.7322 28.9911 21.2427 13.7465 19.7411 13.7444 21.7418 14.7429 15.9938
internal_count=401 206 151 64 44 195 116 85 55 79 55 87 59 64
is_linear=0
shrinkage=0.02


Tree=3
num_leaves=16
num_cat=0
split_feature=6 25 52 54 65 33 54 23 67 75 15 76 63 23 40
split_gain=17.3075 12.7892 9.59615 8.47534 7.98605 7.82875 7.64911 7.1739 6.34578 6.28233 5.5673 5.57446 4.4631 3.8368 0.343118
threshold=1.0000000180025095e-35 216.12500000000003 30.875000000000004 214.12500000000003 7.3750000000000009 26.583333333333339 230.62500000000003 30.875000000000004 3.2916666666666674 5.1250000000000009 1.0000000180025095e-35 38.862500000000004 98.166666666666671 34.875000000000007 18.375000000000004
decision_type=2 2 2 2 2 2 2 2 2 2 2 2 2 2 2
left_child=1 4 -3 7 -1 9 -7 -2 13 -5 11 -4 -6 -9 -14
right_child=3 2 10 5 12 6 -8 8 -10 -11 -12 -13 14 -15 -16
leaf_value=0.0037430528596016813 -0.0033559261324347758 -0.014997154582118005 0.016610856778432034 -0.021048052478941665 -0.011726413468352266 -0.0074931628277988948 0.023098964525919939 0.038559383278918176 0.0029785297717469382 0.0072999819235849365 0.026015830296443873 -0.012217914258362441 -0.026190275454904523 0.01697448161823821 -0.038037326628458247
leaf_weight=4.9964759349823025 4.9977559000253704 8.2458023130893725 5.2462580949068087 7.7466953992843646 7.2456977814435986 4.9970102906227103 8.7446835190057737 8.4939030706882495 4.9963658750057212 4.9975870102643967 6.2459266930818549 5.2469936460256577 4.9957203567028028 6.4933789372444144 5.4955719858407974
leaf_count=20 20 33 21 31 29 20 35 34 20 20 25 21 20 26 22
internal_value=0.00128496 -0.0073602 0.002448 0.00933791 -0.0181909 0.0013603 0.0118562 0.0176771 0.0230274 -0.00980556 0.0111984 0.00202741 -0.0244681 0.0295146 -0.0328854
internal_weight=99.1858 47.7184 24.985 51.4674 22.7335 26.486 13.7417 24.9814 19.9836 12.7443 16.7392 10.4933 17.737 14.9873 10.4913
internal_count=397 191 100 206 91 106 55 100 80 51 67 42 71 60 42
is_linear=0
shrinkage=0.02


Tree=4
num_leaves=15
num_cat=0
split_feature=0 67 25 10 24 76 78 54 7 76 43 57 2 29
split_gain=38.135 11.5659 8.03752 7.49258 7.06902 8.2348 9.19695 6.4976 6.09322 6.57265 3.14032 2.30475 1.40001 1.27865
threshold=1.0000000180025095e-35 2.4166666666666674 212.00000000000003 46.250000000000007 62.037500000000009 43.925000000000011 22.625000000000004 215.62500000000003 7.5000000000000009 31.862500000000001 43.812500000000007 3.1250000000000004 7.5000000000000009 6.3875000000000011
decision_type=2 2 2 2 2 2 2 2 2 2 2 2 2 2
left_child=3 2 -2 4 11 6 7 -6 9 -3 -5 -1 -11 -14
right_child=1 8 -4 10 5 -7 -8 -9 -10 12 -12 -13 13 -15
leaf_value=0.030594991761583677 -0.0096146362212636803 -0.003975258457614492 0.0227905250042632 0.037609711358589426 0.030331148049934704 -0.01882022206450645 -0.0088976976456536291 0.00096267579962927953 -0.0037680591317136893 -0.01910359390787399 0.014408859602308621 0.01072662128520949 -0.037955269321565836 -0.024147885600895085
leaf_weight=5.4926234781742078 7.4946696013212186 5.7454524189233807 4.9968969374895096 5.4908040016889554 7.4918409734964424 5.745575636625289 7.7448076605796805 5.2472609728574753 8.4925222843885404 6.2411715835332897 4.9946966022253036 4.9963347017765045 8.4869399666786176 6.9933973252773276
leaf_count=22 30 23 20 22 30 23 31 21 34 25 20 20 34 28
internal_value=-0.000686873 -0.0131578 0.00326734 0.012072 0.00769652 0.00203579 0.00804591 0.0184917 -0.0189122 -0.0234914 0.0269876 0.0215104 -0.02852 -0.032041
internal_weight=95.655 48.4511 12.4916 47.2039 36.7184 26.2295 20.4839 12.7391 35.9595 27.467 10.4855 10.489 21.7215 15.4803
internal_count=383 194 50 189 147 105 82 51 144 110 42 42 87 62
is_linear=0
shrinkage=0.02


Tree=5
num_leaves=15
num_cat=0
split_feature=0 32 66 1 72 24 0 39 49 0 69 55 51 24
split_gain=37.332 10.0213 9.05715 10.1661 7.45314 6.75656 7.57939 6.27107 5.22345 5.09203 4.64149 2.11749 1.57869 1.51584
threshold=-1.2499999999999998 0.70833333333333337 1.8750000000000002 44.250000000000007 44.737500000000004 62.037500000000009 -4.7499999999999991 6.8750000000000009 20.875000000000004 2.7500000000000004 21.125000000000004 0.70833333333333337 19.875000000000004 62.287500000000009
decision_type=2 2 2 2 2 2 2 2 2 2 2 2 2 2
left_child=2 7 12 5 9 -4 -7 -2 -5 -3 -9 -8 -1 -11
right_child=1 4 3 8 -6 6 11 10 -10 13 -12 -13 -14 -15
leaf_value=0.018378605344119576 -0.018989535538988279 -0.011420207067967985 0.018920433838033747 0.0071225211087066545 -0.0031032383312706662 0.010007292609147794 -0.0077653056042145266 0.015467627320867688 0.030843351508707588 -0.021688204809358309 -0.0062174790811884689 -0.027059046816781025 0.035059405374139249 -0.037875772954109432
leaf_weight=4.9932294189929944 5.2409588992595699 7.9893030077219072 5.2422894388437298 6.9905660897493354 9.4897709935903531 6.2428405135869989 4.9936310350894928 8.991339370608328 8.7285090237855893 4.9890516102313986 6.7425019145011893 4.9971676766872406 6.9873577505350113 8.4832164794206601
leaf_count=20 21 32 21 28 38 25 20 36 35 20 27 20 28 34
internal_value=0.000859771 -0.0109359 0.0133527 0.00836247 -0.0181509 -0.000506352 -0.00697967 -0.000158673 0.0205324 -0.0246666 0.00606791 -0.0177863 0.0284825 -0.0322325
internal_weight=101.102 51.9261 49.1756 37.195 30.9513 21.4759 16.2336 20.9748 15.7191 21.4616 15.7338 9.9908 11.9806 13.4723
internal_count=405 208 197 149 124 86 65 84 63 86 63 40 48 54
is_linear=0
shrinkage=0.02


Tree=6
num_leaves=15
num_cat=0
split_feature=6 38 15 54 49 64 55 40 1 27 37 4 49 74
split_gain=14.3335 10.8473 10.2271 9.70713 7.20383 7.76671 7.17657 6.75503 6.01524 5.75015 7.2484 3.37226 2.3594 2.27695
threshold=1.0000000180025095e-35 2.8750000000000004 1.0000000180025095e-35 212.00000000000003 18.625000000000004 3.9583333333333339 0.87500000000000011 19.125000000000004 39.250000000000007 94.33750000000002 3.1250000000000004 11.500000000000002 20.875000000000004 13.41666666666667
decision_type=2 2 2 2 2 2 2 2 2 2 2 2 2 2
left_child=2 3 4 13 -1 -6 -5 -7 -4 12 -11 -10 -3 -2
right_child=1 9 8 6 5 7 -8 -9 11 10 -12 -13 -14 -15
leaf_value=-0.02915879883495244 0.022233615033441487 0.016913723664389226 -0.011021982763199279 -0.025554336220886757 0.006546539631316307 -0.003454339780069027 0.0039198220246253728 -0.030184685445192008 0.020598218978448646 -0.0082894614571865956 0.02285489681669458 -4.5286454268841889e-05 0.034654223179329112 0.0026392236733780304
leaf_weight=8.9740135818719846 4.9878924190998095 7.481477692723276 6.4870522916317013 7.7369159162044507 8.9859893471002596 7.9819749146699888 5.4925707280635834 7.4827311038970947 7.7378359586000425 6.2404841780662519 5.4780253618955612 4.9869788885116577 6.4853749573230743 4.9909330755472183
leaf_count=36 20 30 26 31 36 32 22 30 31 25 22 20 26 20
internal_value=6.18718e-05 0.00787002 -0.0071543 -0.0019644 -0.0138377 -0.00803718 -0.0132297 -0.0166274 0.00438138 0.0168067 0.00617049 0.0124146 0.0254813 0.0127553
internal_weight=101.53 48.8937 52.6366 23.2083 33.4247 24.4507 13.2295 15.4647 19.2119 25.6854 11.7185 12.7248 13.9669 9.97883
internal_count=407 196 211 93 134 98 53 62 77 103 47 51 56 40
is_linear=0
shrinkage=0.02


Tree=7
num_leaves=15
num_cat=0
split_feature=0 1 1 78 21 52 72 0 24 71 67 77 44 50
split_gain=46.408 10.6312 8.20049 7.27855 6.20308 7.51187 5.40501 5.17839 4.97056 4.70879 4.36044 3.89375 2.41904 0.0374227
threshold=1.0000000180025095e-35 44.250000000000007 44.750000000000007 23.583333333333339 1.2916666666666667 30.291666666666668 44.362500000000004 -2.7499999999999996 64.625000000000014 5.5833333333333348 3.5833333333333335 23.125000000000004 19.375000000000004 0.87500000000000011
decision_type=2 2 2 2 2 2 2 2 2 2 2 2 2 2
left_child=1 3 4 7 5 -2 -4 10 -5 12 13 -3 -7 -1
right_child=2 11 6 8 -6 9 -8 -9 -10 -11 -12 -13 -14 -15
leaf_value=0.029739175801208963 0.00796662281402424 0.014933922303830782 -0.03510680317502942 0.005878971557001204 0.0057226551670726145 -0.034516898865550524 -0.012001741368942196 -0.0044681655797833902 -0.020625546308593874 -0.0049896117760810915 0.0027578758608762261 0.033514280433840742 -0.015139480502409659 0.021306268330007577
leaf_weight=5.2366613894701022 4.9953531622886684 9.7092340737581271 9.7079391628503817 5.491521015763281 9.2307278215885145 6.975003734230997 7.7295831590890876 4.9918262064456966 5.4933027625083923 6.4892968982458106 4.9911005049943915 9.9664825946092588 5.2398378401994705 4.9837814569473267
leaf_count=21 20 39 39 22 37 28 31 20 22 26 20 40 21 20
internal_value=-0.000380432 0.0130618 -0.0139937 0.00568334 -0.00799081 -0.0134177 -0.0251058 0.0128212 -0.00726151 -0.0192472 0.0186176 0.0245686 -0.0265574 0.0260671
internal_weight=101.232 50.8639 50.3677 31.1882 32.9302 23.6995 17.4375 20.2034 10.9848 18.7041 15.2115 19.6757 12.2148 10.2204
internal_count=406 204 202 125 132 95 70 81 44 75 61 79 49 41
is_linear=0
shrinkage=0.02


Tree=8
num_leaves=16
num_cat=0
split_feature=54 33 78 62 21 27 11 54 78 28 11 77 38 11 43
split_gain=9.89207 14.5827 9.76133 8.23704 11.5958 10.4926 6.59037 6.17153 10.3372 7.48008 5.72313 5.51876 4.06996 4.13676 2.33082
threshold=214.12500000000003 25.125000000000004 27.125000000000004 26.583333333333339 1.1250000000000002 96.225000000000009 64.500000000000014 199.12500000000003 23.291666666666668 2.7083333333333335 62.500000000000007 24.125000000000004 2.4166666666666674 62.500000000000007 44.212500000000006
decision_type=2 2 2 2 2 2 10 2 2 2 8 2 2 10 2
left_child=2 12 7 4 -3 6 -5 8 9 10 -1 -9 -2 -14 -6
right_child=1 3 -4 5 14 -7 -8 11 -10 -11 -12 -13 13 -15 -16
leaf_value=0.0046816211967256917 -0.031341684685747287 -0.0096993775418849053 0.031320627515118084 0.021559893887330709 0.034614173005783129 -0.023233663160380044 -0.0075243599466939025 0.027040260334215704 -0.018595623266584288 -0.0062981914069212414 0.033182702912769181 0 0.0015562727576681847 -0.022111261143537085 0.014493027640905634
leaf_weight=6.4764557331800523 6.7198108881711986 5.4800304025411632 6.2309291660785666 5.7368426173925418 5.7298188358545286 7.971532627940177 6.4749217629432678 7.4751590043306333 8.7247907966375333 8.977932542562483 5.2265550196170798 4.9799949079751968 5.2365807145833951 6.233736976981163 4.9792824238538742
leaf_count=26 27 22 25 23 23 32 26 30 35 36 21 20 21 25 20
internal_value=0.00149578 -0.00430573 0.00811466 0.00296454 0.0135849 -0.00548045 0.00604053 0.00454641 -0.000397857 0.00723564 0.0177529 0.016289 -0.0188892 -0.0112133 0.0256643
internal_weight=102.654 54.5626 48.0918 36.3724 16.1891 20.1833 12.2118 41.8609 29.4057 20.6809 11.703 12.4552 18.1901 11.4703 10.7091
internal_count=412 219 193 146 65 81 49 168 118 83 47 50 73 46 43
is_linear=0
shrinkage=0.02


Tree=9
num_leaves=16
num_cat=0
split_feature=0 32 43 61 27 39 64 26 66 0 43 73 4 24 51
split_gain=39.5338 8.5555 7.24334 8.48574 8.01966 6.13555 7.28819 5.52234 6.78336 4.51946 3.67521 7.21144 5.26868 2.7537 0.513102
threshold=1.0000000180025095e-35 0.70833333333333337 44.062500000000007 0.70833333333333337 93.225000000000009 6.6250000000000009 4.1125000000000007 1.1250000000000002 2.5833333333333335 -2.7499999999999996 34.562500000000007 18.291666666666668 10.500000000000002 65.175000000000026 19.875000000000004
decision_type=2 2 2 2 2 2 2 2 2 2 2 2 2 2 2
left_child=2 5 3 4 -1 -2 -7 8 -4 14 11 -3 -12 -14 -5
right_child=1 10 7 9 -6 6 -8 -9 -10 -11 12 -13 13 -15 -16
leaf_value=-0.012956966454308411 -0.021611571583997232 0.0064023453259409273 -0.019388945552269995 0.024736619954104876 0.019194517465301691 0.018691025184165228 -0.0091192708761384956 0.018604056973845321 0.009235846179432251 0.011423834877933923 -0.035291944615299484 -0.02595896356108093 -0.0035988385330366114 -0.024886824287140775 0.036598133309073203
leaf_weight=5.7279990911483782 5.2231315225362804 5.2375914156436938 6.7432788014411944 4.9733267128467578 6.4737785309553146 6.7351768463850012 8.2249400466680509 5.2266369909048072 6.2288904339075089 6.7272246479988089 10.203790396451952 5.4698527157306671 5.2327921986579877 4.9717391282320023 7.9499760866165161
leaf_count=23 21 21 27 20 26 27 33 21 25 27 41 22 21 20 32
internal_value=-0.00105502 -0.0133985 0.0115578 0.0172999 0.00395612 -0.00311598 0.00330934 0.00135887 -0.00552558 0.0254223 -0.0199728 -0.0100315 -0.0250168 -0.0143055 0.032412
internal_weight=101.35 51.299 50.0511 31.8523 12.2018 20.1832 14.9601 18.1988 12.9722 19.6505 31.1158 10.7074 20.4083 10.2045 12.9233
internal_count=407 206 201 128 49 81 60 73 52 79 125 43 82 41 52
is_linear=0
shrinkage=0.02


Tree=10
num_leaves=15
num_cat=0
split_feature=0 10 29 0 1 63 64 40 25 47 72 50 64 46
split_gain=45.7083 6.41425 7.41157 7.83758 9.17469 6.06625 5.89857 5.22311 5.13732 4.9176 3.58519 2.55828 1.89528 0.605724
threshold=1.0000000180025095e-35 47.250000000000007 6.9375000000000009 -7.2499999999999991 44.250000000000007 93.625000000000014 3.9583333333333339 16.583333333333339 217.62500000000003 38.987500000000004 44.962500000000006 1.1250000000000002 4.3375000000000012 5.1250000000000009
decision_type=2 2 2 2 2 2 2 2 2 2 2 2 2 2
left_child=1 2 5 -4 -5 -1 8 -8 9 -2 13 -7 -3 -9
right_child=6 12 3 4 -6 11 7 10 -10 -11 -12 -13 -14 -15
leaf_value=0.0023666765223118351 -0.0022299440872419994 0.035438403686910196 0.018715899219339093 -0.020535484025315211 0.013257816574456679 0.032179367241801607 -0.0046542651002416174 -0.036317557350484551 0.0066225553696985266 -0.028719006027340409 -0.012754100115921705 0.013785898331312487 0.016803099750763537 -0.024664602260294658
leaf_weight=7.2206000983715084 6.7209950834512728 5.6871062964200956 6.4677911996841457 8.4872158467769605 4.978762060403823 8.6937648802995664 7.2186410576105144 6.9501937329769152 8.2248449176549894 4.9687500298023224 7.222152352333068 5.7280207127332678 4.970761775970459 6.4554647505283356
leaf_count=29 27 23 26 34 20 35 29 28 33 20 29 23 20 26
internal_value=0.000339863 0.0132772 0.00961126 0.000694466 -0.00788807 0.0176911 -0.0137655 -0.0197229 -0.00527856 -0.0138069 -0.0248517 0.0251568 0.0271699 -0.0310784
internal_weight=99.9951 52.234 41.5762 19.9338 13.466 21.6424 47.761 27.8465 19.9146 11.6897 20.6278 14.4218 10.6579 13.4057
internal_count=402 210 167 80 54 87 192 112 80 47 83 58 43 54
is_linear=0
shrinkage=0.02


Tree=11
num_leaves=15
num_cat=0
split_feature=0 1 72 63 48 11 44 77 53 0 43 1 38 34
split_gain=49.3817 6.89894 7.93683 6.0465 12.6217 7.05564 5.45986 5.45554 7.29327 4.69136 6.1238 2.73363 2.84304 2.45551
threshold=1.2500000000000002 46.250000000000007 48.025000000000006 93.625000000000014 25.125000000000004 47.500000000000007 19.875000000000004 20.125000000000004 62.862500000000004 -2.7499999999999996 43.675000000000004 38.750000000000007 3.1250000000000004 117.87500000000001
decision_type=2 2 2 2 2 8 2 2 2 2 2 2 2 2
left_child=3 2 7 4 6 -5 -1 8 -2 10 -7 -9 -13 -3
right_child=1 13 -4 5 -6 9 -8 11 -10 -11 -12 12 -14 -15
leaf_value=-0.024100850728469424 -0.020639530262098308 -0.035853730778139234 0.011307913095199233 -0.0011881516130712645 0.026379022677004888 0.036081613678051599 0.004318824715696422 -0.0085697774167772228 0.012098699664815154 0.0079864780602304595 0.013197832418572515 -0.033851699126683156 -0.013340230449482626 -0.016036447117719326
leaf_weight=5.2366224527359027 4.9675853252410906 7.1816524118185026 5.487707555294036 5.9695650190114975 5.9500537365674964 12.62031807005406 5.2322243303060532 5.4760216176509884 5.7315690368413925 7.2212691009044638 8.2085264027118665 7.9396839290857297 4.9794020652770996 4.9559895694255829
leaf_count=21 20 29 22 24 24 51 21 22 23 29 33 32 20 20
internal_value=-0.00027576 -0.0150943 -0.010396 0.0134133 0.00326936 0.0182265 -0.00980128 -0.014583 -0.00296673 0.0224189 0.027265 -0.0211787 -0.0262628 -0.0281226
internal_weight=97.1582 46.7196 34.582 50.4386 16.4189 34.0197 10.4688 29.0943 10.6992 28.0501 20.8288 18.3951 12.9191 12.1376
internal_count=391 188 139 203 66 137 42 117 43 113 84 74 52 49
is_linear=0
shrinkage=0.02


Tree=12
num_leaves=15
num_cat=0
split_feature=0 38 64 24 61 67 35 52 0 72 11 53 35 23
split_gain=44.1803 9.78736 8.20035 7.87101 6.67 10.2574 5.98516 4.50976 3.87663 3.20842 2.88644 6.36596 1.46463 0.741528
threshold=1.0000000180025095e-35 2.4166666666666674 3.9583333333333339 63.087500000000006 0.58333333333333337 2.4166666666666674 3.9875000000000007 28.583333333333339 -2.7499999999999996 34.562500000000007 60.000000000000007 66.25833333333334 3.9875000000000007 33.291666666666679
decision_type=2 2 2 2 2 2 2 2 2 2 10 2 2 2
left_child=1 8 3 -2 5 -3 -5 -4 -1 -6 11 -9 -11 -12
right_child=2 4 7 6 9 -7 -8 10 -10 12 13 -13 -14 -15
leaf_value=0.0083311934139474637 -0.017604732910291531 0.028975784628126645 -0.0030991402928168621 0.022358801375578073 0.014654630313185781 -0.0048284485655112229 -0.0068201690247678528 -0.029252736882637291 -0.014100068676082973 0.020451988816511411 -0.023182935536714303 0.0011868026258086276 0.035874350803386426 -0.035490101930364927
leaf_weight=6.7095394134521484 7.9510367214679745 5.6884104609489432 5.7253042012453106 5.7381687313318235 8.1697536855936068 9.2007618993520719 5.2095858752727509 5.7070567607879656 5.4865313619375211 4.9595976769924155 6.4192574918270093 4.9731816649436951 10.135660901665686 6.6694336831569672
leaf_count=27 32 23 23 23 33 37 21 23 22 20 26 20 41 27
internal_value=0.000687359 0.0138085 -0.0129236 -0.00249564 0.018787 0.00806018 0.00835665 -0.0195068 -0.0016297 0.0255025 -0.0233456 -0.0150137 0.0311068 -0.0298273
internal_weight=98.7433 50.3503 48.393 18.8988 38.1542 14.8892 10.9478 29.4942 12.1961 23.265 23.7689 10.6802 15.0953 13.0887
internal_count=398 203 195 76 154 60 44 119 49 94 96 43 61 53
is_linear=0
shrinkage=0.02


Tree=13
num_leaves=15
num_cat=0
split_feature=38 21 52 24 67 40 57 7 75 15 24 12 25 48
split_gain=10.5793 7.4188 7.04168 6.16955 5.66331 6.44576 5.74451 6.11123 5.22215 4.75437 4.36845 5.40177 3.5404 3.14387
threshold=2.4166666666666674 0.70833333333333337 33.125000000000007 65.358333333333334 2.4166666666666674 20.375000000000004 3.8750000000000004 10.500000000000002 4.291666666666667 1.0000000180025095e-35 68.187500000000014 5.5000000000000009 191.87500000000003 21.875000000000004
decision_type=2 2 2 2 2 2 2 2 2 2 2 10 2 2
left_child=2 -2 3 -1 5 -3 7 8 -6 10 11 -10 -4 -14
right_child=1 4 12 -5 6 -7 -8 -9 9 -11 -12 -13 13 -15
leaf_value=-0.010973619355942028 -0.015460363905409285 0.0042907526556087532 -0.0056932655387603231 0.016950328058009848 0.01066590412804916 0.0286870533093368 0.021736249567967311 0.019443505530678994 -0.019282582320536593 0.0055921711139686374 -0.025175191423223647 0.0081975321976610269 -0.036203095955907885 -0.014056503788420455
leaf_weight=7.1990744918584841 6.9441502541303626 9.6965901255607623 6.1904808729887035 5.4715818762779236 7.6742198616266242 8.1447655707597715 5.2092406749725333 5.2240649908781043 5.4493339210748726 7.1899206042289725 7.4275639504194251 5.7062501311302185 5.4496936649084073 5.9415374547243118
leaf_count=29 28 39 25 22 31 33 21 21 22 29 30 23 22 24
internal_value=-0.000403675 0.00391673 -0.0102565 0.000966503 0.00615062 0.0156372 0.00222122 -0.000405257 -0.00361373 -0.00796774 -0.013323 -0.00510045 -0.0184175 -0.0250486
internal_weight=98.9185 68.6661 30.2524 12.6707 61.7219 17.8414 43.8806 38.6714 33.4473 25.7731 18.5831 11.1556 17.5817 11.3912
internal_count=399 277 122 51 249 72 177 156 135 104 75 45 71 46
is_linear=0
shrinkage=0.02


Tree=14
num_leaves=16
num_cat=0
split_feature=0 59 56 56 1 35 72 0 34 11 12 58 26 60 47
split_gain=34.4743 7.209 7.28832 11.0807 7.08341 5.91766 5.54237 7.14828 5.30162 5.72176 5.26952 5.8876 3.14843 2.5089 0.519175
threshold=1.2500000000000002 6.6525000000000007 89.262500000000017 92.887500000000017 44.750000000000007 3.9583333333333339 48.025000000000006 2.7500000000000004 95.125000000000014 52.500000000000007 8.5000000000000018 5.9375000000000009 0.58333333333333337 3.8175000000000003 37.462500000000006
decision_type=2 2 2 2 2 2 2 2 2 8 10 2 2 2 2
left_child=1 2 10 -4 6 -5 7 -2 -9 -10 11 13 -6 -1 -3
right_child=4 14 3 5 12 -7 -8 8 9 -11 -12 -13 -14 -15 -16
leaf_value=0.015569023660147728 0.0067189521945066576 0.032081862872950555 -0.027775137721537117 -0.006253336449581255 -0.012024625207546281 0.023825259115319013 0.012004678993680533 -0.0021056280631657756 -0.0063665594970878127 -0.033527517156272654 -0.001102851833986402 0.0025415921966721951 -0.03081460203264403 0.035716628643347834 0.019793909562615019
leaf_weight=4.9293292909860664 6.9709846973419216 4.9495236277580243 4.984406203031539 5.2127562463283521 6.6687088608741787 4.9429423362016678 4.9860422909259787 7.2020932435989407 5.2065806090831712 8.6543638557195681 6.4666821658611289 5.7009249031543723 9.5753532350063306 6.9171811640262604 4.9400419741868973
leaf_count=20 28 20 20 21 27 20 20 29 21 35 26 23 39 28 20
internal_value=-0.000688351 0.0111489 0.00718751 -0.00356252 -0.0125119 0.00828095 -0.00706841 -0.0105624 -0.016381 -0.023587 0.0140347 0.0197012 -0.0233439 0.0277011 0.0264036
internal_weight=98.3079 49.0438 39.1542 15.1401 49.2641 10.1557 33.0201 28.034 21.063 13.8609 24.0141 17.5474 16.2441 11.8465 9.88957
internal_count=397 198 158 61 199 41 133 113 85 56 97 71 66 48 40
is_linear=0
shrinkage=0.02


Tree=15
num_leaves=14
num_cat=0
split_feature=0 32 72 38 43 48 36 38 77 63 33 34 54
split_gain=33.8462 10.1921 10.0704 9.93239 6.82291 10.9377 6.4502 8.41284 4.70522 4.56713 3.6081 1.94163 1.40215
threshold=1.2500000000000002 0.70833333333333337 44.737500000000004 2.8750000000000004 48.025000000000006 22.625000000000004 7.8750000000000009 2.4166666666666674 23.583333333333339 101.00000000000001 25.291666666666668 93.625000000000014 187.37500000000003
decision_type=2 2 2 2 2 2 2 2 2 2 2 2 2
left_child=4 3 11 8 5 6 -1 -8 -2 -9 -7 -3 -12
right_child=1 2 -4 -5 -6 10 7 9 -10 -11 12 -13 -14
leaf_value=0.024324044687591521 -0.0019460553860875371 -0.01660222952153324 -0.0027616205643473976 0.013162107610225111 -0.00526332764299058 0.010299793932365216 -0.019820718828350885 -0.0051244797878712339 -0.027746290397668068 0.019990095832485164 0.020063664592848335 -0.032460367184830599 0.035479386765181739
leaf_weight=4.9517420232296017 6.2025859951972979 5.176849961280829 9.1865407973527891 9.4604112058877927 8.6864646226167661 5.4315362125635174 6.2306378334760693 4.9824621975421888 5.4189558625221252 6.4007563292980194 4.9290445148944846 14.243261128664015 9.1083061099052411
leaf_count=20 25 21 37 38 35 22 25 20 22 26 20 58 37
internal_value=-0.000803515 -0.0125411 -0.0203033 -0.00186765 0.0106578 0.0140001 0.00438139 -0.00121781 -0.014281 0.00887432 0.0249672 -0.0284422 0.030388
internal_weight=100.41 49.6886 28.6067 21.082 50.7209 42.0345 22.5656 17.6139 11.6215 11.3832 19.4689 19.4201 14.0374
internal_count=406 201 116 85 205 170 91 71 47 46 79 79 57
is_linear=0
shrinkage=0.02


Tree=16
num_leaves=15
num_cat=0
split_feature=0 10 10 54 35 53 51 32 44 49 76 34 78 76
split_gain=35.4889 7.74382 5.73188 7.96434 5.51379 12.7249 8.53657 5.038 6.33119 5.05541 6.92973 4.82731 2.34567 2.17367
threshold=-1.2499999999999998 46.250000000000007 46.250000000000007 254.25000000000003 3.9583333333333339 63.150000000000013 20.583333333333339 0.70833333333333337 19.583333333333339 18.625000000000004 37.562500000000007 118.75000000000001 21.625000000000004 40.750000000000007
decision_type=2 2 2 2 2 2 2 2 2 2 2 2 2 2
left_child=1 4 3 7 5 -1 -6 8 -2 -9 -11 -4 -3 -8
right_child=2 12 11 -5 6 -7 13 9 -10 10 -12 -13 -14 -15
leaf_value=0.016986992342974332 -0.014273529822470503 0.014599117641912216 -0.032085737745108943 0.0096809695183611901 0.00011873187735494352 -0.017830896923390852 0.034960681213482413 -0.034937293169616773 0.013972143276430107 0.0027515684698135633 -0.027769894570687913 -0.0076211260960387843 0.034285321140030897 0.016014588752576164
leaf_weight=7.9243171066045788 7.693103954195978 4.9053533822298032 8.551204785704611 8.1978479176759702 9.6526466310024279 8.6903249025344831 5.6659408658742887 5.6636598408222225 5.2192787379026413 6.2006704211235029 5.4135204553604126 5.6672223806381217 6.6021822392940521 5.7002705186605453
leaf_count=32 31 20 35 33 39 35 23 23 21 25 22 23 27 23
internal_value=-0.000286674 0.0119018 -0.0117112 -0.00757954 0.0073992 -0.00110265 0.0141877 -0.012349 -0.00268309 -0.0194005 -0.0114198 -0.0225956 0.026264 0.025856
internal_weight=101.748 49.141 52.6065 38.3881 37.6335 16.6146 21.0189 30.1902 12.9124 17.2779 11.6142 14.2184 11.5075 11.3662
internal_count=412 199 213 155 152 67 85 122 52 70 47 58 47 46
is_linear=0
shrinkage=0.02


Tree=17
num_leaves=14
num_cat=0
split_feature=0 64 24 35 51 24 52 77 29 10 72 76 47
split_gain=31.9848 9.51216 9.66193 7.17092 6.54604 6.45044 5.78863 5.00769 4.33057 4.17745 3.91935 2.37058 0.91494
threshold=1.0000000180025095e-35 3.9583333333333339 61.45000000000001 3.9583333333333339 21.708333333333339 60.300000000000004 30.875000000000004 21.125000000000004 6.9583333333333348 43.750000000000007 48.770833333333343 36.975000000000009 42.925000000000011
decision_type=2 2 2 2 2 2 2 2 2 2 2 2 2
left_child=3 5 -3 4 6 -2 -1 8 -5 -7 12 -9 -4
right_child=1 2 10 7 -6 9 -8 11 -10 -11 -12 -13 -14
leaf_value=-0.002230938544898412 -0.019910619674252221 -0.00095586944521020185 -0.034539667768835089 0.018890371333008204 -0.010272102127695335 0.01396368649386754 0.027515490778422996 0.015202101909296151 -0.0013691692558399217 -0.0083066917438324468 -0.0094382035357778692 0.034484803273919326 -0.022510559053903204
leaf_weight=4.9446020871400851 4.9346328824758556 9.397026255726816 10.261188536882406 9.578743010759359 9.1891057789325696 9.6913432180881482 5.1691484749317169 4.9230474233627302 7.1539109349250785 4.937057137489318 5.1845977753400794 7.5875559449195862 6.37503658235073
leaf_count=20 20 38 42 39 37 39 21 20 29 20 21 31 26
internal_value=-0.000213887 -0.0113195 -0.0181553 0.0113612 0.00176832 -0.000272628 0.0128972 0.0175975 0.0101531 0.00630632 -0.0254327 0.0272362 -0.0302116
internal_weight=99.327 50.7809 31.2178 48.5461 19.3029 19.563 10.1138 29.2433 16.7327 14.6284 21.8208 12.5106 16.6362
internal_count=403 206 127 197 78 79 41 119 68 59 89 51 68
is_linear=0
shrinkage=0.02


Tree=18
num_leaves=15
num_cat=0
split_feature=0 1 48 31 0 32 38 77 72 77 11 40 25 35
split_gain=33.0681 7.63339 7.39988 8.08671 6.83298 6.78687 11.5713 6.97295 6.5343 7.50495 6.19391 0.713614 0.475913 0.0429829
threshold=-1.2499999999999998 44.750000000000007 18.583333333333339 6.1062500000000002 -4.7499999999999991 0.58333333333333337 2.8750000000000004 25.125000000000004 44.737500000000004 18.583333333333339 62.500000000000007 18.875000000000004 210.87500000000003 4.5125000000000011
decision_type=2 2 2 2 2 2 2 2 2 2 10 2 2 2
left_child=1 2 -1 12 -5 6 7 -2 9 -7 -3 -11 -4 -12
right_child=5 10 3 4 -6 8 -8 -9 -10 11 13 -13 -14 -15
leaf_value=-0.01225706646968084 -0.002447027673794087 0.0033332938928068647 0.018591396568274882 0.015207129874008858 -0.011089263026554217 -0.00069204248287172202 0.013534580877739748 -0.033846299147527154 -0.0026392756253221772 -0.023562403300067095 0.034110675932840805 -0.034011796054762226 0.030424197420523359 0.025073897724868531
leaf_weight=6.9465948343276969 6.9288672506809252 4.9145919233560589 4.9047958999872225 7.6342772096395484 7.9434064030647269 4.9277942925691667 9.6967132836580259 4.8869389742612839 9.1727090179920179 8.8097082525491732 6.5876895785331708 8.7439173609018308 4.9076366275548935 4.8425491452217102
leaf_count=28 28 20 20 31 32 20 39 20 37 36 27 36 20 20
internal_value=-0.000351786 0.0115252 0.00577893 0.0108207 0.00168524 -0.0112656 -0.00247055 -0.0157765 -0.0171532 -0.0229486 0.0226677 -0.029044 0.0249585 0.0307063
internal_weight=101.848 48.6815 32.3367 25.3901 15.5777 53.1666 21.5125 11.8158 31.6541 22.4814 16.3448 17.5536 9.81243 11.4302
internal_count=414 198 131 103 63 216 87 48 129 92 67 72 40 47
is_linear=0
shrinkage=0.02


Tree=19
num_leaves=14
num_cat=0
split_feature=0 48 63 39 62 61 48 27 11 22 69 39 75
split_gain=30.9987 6.05222 6.92046 5.80435 6.86749 8.1873 5.10308 6.39453 5.02824 3.75578 3.96315 2.90542 1.03665
threshold=2.7500000000000004 19.125000000000004 93.291666666666671 11.125000000000002 26.583333333333339 0.87500000000000011 22.875000000000004 89.262500000000017 60.000000000000007 22.291666666666668 17.583333333333339 9.2916666666666696 5.1250000000000009
decision_type=2 2 2 2 2 2 2 2 8 2 2 2 2
left_child=1 2 -1 4 9 -6 7 8 -2 10 -3 -11 -10
right_child=6 3 -4 -5 5 -7 -8 -9 12 11 -12 -13 -14
leaf_value=-0.018996155351539857 -0.004781187058496561 0.020410267396959645 0.0087654034604586137 0.026560002430648978 -0.014413044565743756 0.012424264761868718 -0.027951994416539585 0.006329560835655247 -0.033328353587839754 0.034708920524122035 -0.0036739703164493267 0.012756849210091181 -0.017964248174445814
leaf_weight=5.9681781977415076 8.6488385945558566 4.9437870085239428 8.6268523633480054 9.03360368311405 8.6516246646642703 9.3540916293859464 9.0252513140439969 6.679990515112876 4.8487789332866686 5.6311588883399946 5.6685252040624619 5.1432701647281647 4.8646346628665924
leaf_count=24 35 20 35 37 35 38 37 27 20 23 23 21 20
internal_value=0.000335328 0.00866105 -0.00250273 0.0120651 0.00863163 -0.000368802 -0.0149881 -0.0101437 -0.0162467 0.0162687 0.00744486 0.0246275 -0.026099
internal_weight=97.0886 63.0211 14.595 48.4261 39.3925 18.0057 34.0675 25.0422 18.3623 21.3867 10.6123 10.7744 9.71341
internal_count=395 256 59 197 160 73 139 102 75 87 43 44 40
is_linear=0
shrinkage=0.02


Tree=20
num_leaves=15
num_cat=0
split_feature=15 48 12 67 9 72 69 21 24 69 11 56 51 32
split_gain=7.99637 7.24365 7.00944 10.4307 6.51359 4.52416 6.37094 6.2814 5.7454 5.95835 4.57062 4.52986 5.07268 1.7555
threshold=1.0000000180025095e-35 18.291666666666668 8.5000000000000018 3.1250000000000004 3.5000000000000004 48.912500000000009 22.291666666666668 1.2916666666666667 65.987500000000011 18.375000000000004 65.500000000000014 77.362500000000026 22.125000000000004 1.1250000000000002
decision_type=2 2 10 2 2 2 2 2 2 2 10 2 2 2
left_child=4 -2 3 13 5 6 7 8 9 -1 -11 -9 -13 -3
right_child=1 2 -4 -5 -6 -7 -8 11 -10 10 -12 12 -14 -15
leaf_value=-0.035612883687087218 -0.0075663947001095837 0.032953627811652494 -0.0043264756913157457 -0.0025243458812938806 0.018073244914293959 0.010658444993941307 -0.023621097715847604 0.0197261972776069 0.0038505742293396977 0.0047418787918561828 -0.020519140597502081 -0.014796499064323685 0.0083825216410409725 0.017065546130409132
leaf_weight=5.1657533943653169 8.896045580506323 9.7325160205364281 6.9049400240182868 6.4101447016000739 4.9131704568862906 5.9204518198966971 8.2488228231668455 5.1307832598686245 6.6582022011280051 4.9317499548196775 6.3159429430961609 6.6646024733781806 8.383492633700369 5.3694055229425421
leaf_count=21 36 40 28 26 20 24 34 21 27 20 26 27 34 22
internal_value=0.000651861 0.00797976 0.0129261 0.0185508 -0.00370841 -0.00563512 -0.00756404 -0.00440805 -0.0115354 -0.0178835 -0.00932257 0.00365918 -0.00178104 0.0275857
internal_weight=99.646 37.3131 28.417 21.5121 62.333 57.4198 51.4993 43.2505 23.0716 16.4134 11.2477 20.1789 15.0481 15.1019
internal_count=406 152 116 88 254 234 210 176 94 67 46 82 61 62
is_linear=0
shrinkage=0.02


Tree=21
num_leaves=15
num_cat=0
split_feature=0 67 65 43 78 10 78 66 0 30 23 3 43 64
split_gain=28.4189 6.58273 6.60339 5.61137 10.5986 5.03941 6.86968 6.3784 5.23387 5.75014 3.65123 3.44249 4.22559 1.20832
threshold=1.0000000180025095e-35 2.4166666666666674 10.583333333333334 36.225000000000009 21.125000000000004 44.250000000000007 18.625000000000004 1.7083333333333337 -6.2499999999999991 6.422083333333334 31.291666666666668 5.5000000000000009 44.962500000000006 4.0125000000000011
decision_type=2 2 2 2 2 2 2 2 2 2 2 2 2 2
left_child=5 2 -2 4 -3 6 -1 -8 -9 -10 -5 -7 -13 -12
right_child=1 3 -4 10 -6 11 7 8 9 -11 13 12 -14 -15
leaf_value=0.020339686266763326 -0.014040223047154006 0.009151589279715433 0.014962212273270293 -0.0085197051157430911 -0.023935360804980672 0.0033604722277693227 0.016185386464187879 0.0091402568527913994 -0.0026857308187554097 -0.030883509469255124 -0.019285944454256604 0.030966698178084444 0.0084070878052172286 -0.033762380555029059
leaf_weight=7.8710285574197796 6.1711021959781629 7.6553000807762128 6.1822697818279266 5.1371028423309353 7.5489999800920486 5.6248124092817315 6.1343019008636501 5.1653270572423997 7.1726436913013405 4.9817398935556412 4.9081643968820563 8.8992690593004209 5.8750131726264962 9.1972258985042554
leaf_count=32 25 31 25 21 31 23 25 21 29 20 20 37 24 38
internal_value=-0.000754666 -0.0120524 0.000317101 -0.0165344 -0.0071946 0.00943254 0.00428591 -0.00108021 -0.00736797 -0.0145641 -0.0237354 0.0171787 0.0222471 -0.0290371
internal_weight=98.5243 46.8002 12.3534 34.4468 15.2043 51.7241 31.325 23.454 17.3197 12.1544 19.2425 20.3991 14.7743 14.1054
internal_count=402 191 50 141 62 211 127 95 70 49 79 84 61 58
is_linear=0
shrinkage=0.02


Tree=22
num_leaves=15
num_cat=0
split_feature=0 61 53 0 48 27 0 43 38 66 73 23 11 23
split_gain=27.3371 7.94997 7.62328 6.61332 7.61161 9.51491 6.4682 6.08266 7.22634 5.13482 4.8135 3.4724 3.17029 1.99215
threshold=1.0000000180025095e-35 1.2916666666666667 60.300000000000004 2.7500000000000004 21.375000000000004 80.425000000000026 -8.2499999999999982 48.38750000000001 2.4166666666666674 2.5833333333333335 20.291666666666668 34.125000000000007 60.000000000000007 32.875000000000007
decision_type=2 2 2 2 2 2 2 2 2 2 2 2 8 2
left_child=1 6 -2 9 5 12 -1 8 -8 -4 11 -10 -5 -6
right_child=2 -3 3 4 13 -7 7 -9 10 -11 -12 -13 -14 -15
leaf_value=0.023809772418564294 -0.029153097053939411 0.030672626893687199 -0.0080879022812396315 -0.0045005123147659363 -0.033038062178538559 0.010070152994346753 -0.010249775034310129 -0.016589637468351889 0.02738225468844397 0.019355557251690334 -0.00060805905750163636 0.0079995722272913836 -0.026719824270681231 -0.014341682603996472
leaf_weight=7.7526714801788321 7.3178829103708258 6.785290300846099 4.940011650323866 4.9377503693103852 6.032136067748068 9.598289415240286 7.1877360790967968 4.9608074873685828 8.5238385349512118 5.7064617276191711 7.3815039545297614 7.3120136559009543 6.0173373073339453 4.8581278026103973
leaf_count=32 30 28 20 20 25 39 29 20 35 23 30 30 25 20
internal_value=0.000156865 0.010607 -0.0103578 -0.00698128 -0.0116082 -0.00428324 0.00733943 0.00361557 0.00702133 0.00647879 0.012475 0.0186644 -0.0170172 -0.025086
internal_weight=99.3119 49.9039 49.408 42.0901 31.4436 20.5534 43.1186 35.3659 30.4051 10.6465 23.2174 15.8359 10.9551 10.8903
internal_count=406 204 202 172 129 84 176 144 124 43 95 65 45 45
is_linear=0
shrinkage=0.02


Tree=23
num_leaves=16
num_cat=0
split_feature=0 10 43 1 53 0 58 23 61 11 47 76 33 55 0
split_gain=33.8373 7.07541 10.0462 5.97513 6.41134 7.76925 6.20563 5.62528 8.68325 5.25918 3.1528 2.56451 2.1161 2.05855 0.771374
threshold=1.0000000180025095e-35 46.250000000000007 48.025000000000006 44.250000000000007 62.037500000000009 4.7500000000000009 6.9583333333333348 34.583333333333336 0.70833333333333337 52.500000000000007 35.262500000000003 36.225000000000009 25.291666666666668 0.58333333333333337 5.2500000000000009
decision_type=2 2 2 2 2 2 2 2 2 10 2 2 2 2 2
left_child=1 2 7 4 11 6 -6 10 -9 -5 -1 -2 -12 -3 -11
right_child=3 13 -4 9 5 -7 -8 8 -10 14 12 -13 -14 -15 -16
leaf_value=0.0047538069610106939 -0.0093227857182999283 0.014159990254726538 -0.016930782616268653 -0.003111335793382596 -0.0030518306941367764 -0.015622209749742875 0.022581935836107032 -0.016936386176424949 0.014662172098137511 -0.032887295776976286 0.012141957917529856 -0.030232291118287506 0.029789391187917513 0.032345544330229313 -0.019896608425710522
leaf_weight=5.152184113860133 5.3762509673833829 5.075556352734564 5.6884413361549369 4.9009363055229214 8.5929843485355395 8.8177914172410947 6.4607742875814429 5.6906413584947577 8.5662218630313856 7.4198741763830167 4.9054456055164328 4.8914775103330612 8.7659989446401578 6.9012070745229721 4.7685219198465347
leaf_count=21 22 21 23 20 35 36 26 23 35 31 20 20 36 29 20
internal_value=-7.76318e-06 0.0115367 0.00727694 -0.0114825 -0.00653191 -0.000737964 0.00789411 0.0115384 0.00188015 -0.0211605 0.0186992 -0.0196724 0.0237367 0.0249855 -0.0281709
internal_weight=101.974 50.7457 38.7689 51.2286 34.1393 23.8716 15.0538 33.0805 14.2569 17.0893 18.8236 10.2677 13.6714 11.9768 12.1884
internal_count=418 208 158 210 139 97 61 135 58 71 77 42 56 50 51
is_linear=0
shrinkage=0.02


Tree=24
num_leaves=17
num_cat=0
split_feature=77 25 31 56 37 63 63 29 69 75 29 78 78 10 70 21
split_gain=8.58449 5.95918 8.03981 7.14956 6.50141 5.59686 9.86686 5.35803 4.6977 4.36176 4.25289 3.95196 13.9585 5.27111 3.77094 3.19826
threshold=19.125000000000004 212.00000000000003 6.3679166666666669 95.737500000000026 2.5833333333333335 106.29166666666667 136.37500000000003 5.6375000000000011 22.125000000000004 4.7083333333333348 7.5875000000000012 26.375000000000004 23.583333333333339 43.250000000000007 13.583333333333334 1.4166666666666667
decision_type=2 2 2 2 2 2 2 2 2 2 2 2 2 2 2 2
left_child=11 4 8 9 5 -2 -7 -6 15 -4 -5 12 13 14 -1 -3
right_child=1 2 3 10 7 6 -8 -9 -10 -11 -12 -13 -14 -15 -16 -17
leaf_value=0.0095176107369812357 -0.014904671985195629 0.011007169488704702 -0.029734387259432903 -0.0050268404719997183 -0.00092577326227772337 0.024092034275321163 -0.012498692721962442 -0.027165330020235273 -0.0013256053276635676 -0.0032202021199685556 0.020038297303180106 0.024903569515469553 -0.022722462828216248 -0.002612896832062386 0.030454304638993769 0.034106841509129703
leaf_weight=7.1251405477523893 6.5527323335409191 5.6214097738265973 4.9013006240129489 5.3826842457056028 4.9204964041709891 6.6129726916551572 5.0947257578372955 9.2444147616624814 4.8147428333759299 5.3585613071918488 5.1062891781330109 6.2892990112304679 4.9202443212270728 5.1058041751384726 7.580493375658989 4.8424258828163147
leaf_count=29 27 23 20 22 20 27 21 38 20 22 21 26 20 21 31 20
internal_value=0.00201633 -0.00191587 0.00364013 -0.00438987 -0.00814278 -0.00012826 0.00802882 -0.018261 0.0146328 -0.0162443 0.00706061 0.0107359 0.00696673 0.0145177 0.020578 0.0221082
internal_weight=99.4737 68.4528 36.0274 20.7488 32.4253 18.2604 11.7077 14.1649 15.2786 10.2599 10.489 31.021 24.7317 19.8114 14.7056 10.4638
internal_count=408 281 148 85 133 75 48 58 63 42 43 127 101 81 60 43
is_linear=0
shrinkage=0.02


Tree=25
num_leaves=16
num_cat=0
split_feature=38 21 69 29 52 53 38 58 37 38 25 4 70 28 29
split_gain=12.2653 12.6147 7.78633 7.57648 8.266 5.08674 4.9816 5.22766 4.97031 3.6521 5.95513 3.56495 3.17394 1.09388 0.36571
threshold=2.4166666666666674 0.70833333333333337 22.291666666666668 6.9375000000000009 30.875000000000004 69.045833333333348 1.4166666666666667 5.8875000000000011 3.1250000000000004 3.1250000000000004 206.29166666666671 9.5000000000000018 13.125000000000002 2.1250000000000004 6.1375000000000011
decision_type=2 2 2 2 2 2 2 2 2 2 2 2 2 2 2
left_child=2 -2 6 5 -5 9 -1 -8 11 10 -3 -6 -9 -11 -15
right_child=1 3 -4 4 8 -7 7 12 -10 13 -12 -13 -14 14 -16
leaf_value=0.011892552036815303 -0.020023327012009928 -0.0054262075033572185 -0.027804610951509968 -0.017733574709600936 -0.012673828532109315 0.00031986098308652136 0.0066751442140042163 -0.0058244002461935764 0.020132492258711207 0.016952831575569413 0.024417174316827328 0.0087476379518798102 -0.02793030435608531 0.023844026406099627 0.035590040644679209
leaf_weight=6.1191723346710267 6.3315363973379126 4.8329025357961672 6.7116573452949515 6.582910522818568 5.1427445113658923 6.8487438857555381 5.4226462244987514 5.6027445346117002 7.9333540350198737 4.8373292833566657 5.5787128806114197 7.5300592184066772 5.3761070519685745 4.8609282821416837 5.3627857118844986
leaf_count=25 26 20 28 27 21 28 22 23 33 20 23 31 22 20 22
internal_value=0.0017077 0.0065097 -0.00902532 0.00939506 0.00152145 0.0159316 -0.00324208 -0.00904766 0.00782525 0.0200332 0.0104543 0 -0.0169841 0.0264105 0.0304841
internal_weight=95.0743 65.842 29.2323 59.5105 27.1891 32.3214 22.5207 16.4015 20.6062 25.4727 10.4116 12.6728 10.9789 15.061 10.2237
internal_count=391 271 120 245 112 133 92 67 85 105 43 52 45 62 42
is_linear=0
shrinkage=0.02


Tree=26
num_leaves=15
num_cat=0
split_feature=0 1 53 47 58 67 0 61 67 54 68 76 34 61
split_gain=22.6901 9.22416 6.15279 6.48149 5.23458 7.01331 4.75169 8.92398 6.03074 6.56323 4.93916 5.23351 3.63396 0.534409
threshold=1.0000000180025095e-35 44.250000000000007 62.037500000000009 44.837500000000013 6.9375000000000009 2.8750000000000004 -8.2499999999999982 0.70833333333333337 3.1250000000000004 186.62500000000003 9.2916666666666696 35.412500000000009 118.75000000000001 1.4166666666666667
decision_type=2 2 2 2 2 2 2 2 2 2 2 2 2 2
left_child=6 2 -2 4 5 -4 -1 8 9 -8 11 -9 13 -3
right_child=1 12 3 -5 -6 -7 7 10 -10 -11 -12 -13 -14 -15
leaf_value=0.022539697961114481 -0.016880799984991698 -0.032173185130331551 0.0050845204290627501 0.022721573021769258 0.0097972927197053777 -0.027133571784870511 -0.010334960588029428 -0.0091525397441852285 -0.018380912826058821 0.022033681161557291 0.025601984867771259 0.015631030770279643 -0.0093847375010126279 -0.020304712478952887
leaf_weight=9.1372915357351285 8.7733230739831942 6.6364596039056796 4.9277024269104057 4.9605836272239676 7.4225521534681311 5.5948261022567749 4.9260260611772555 5.1293786913156536 7.1855412125587454 4.8241379857063293 9.4267071932554227 9.3900045156478864 7.9786170274019232 4.7749929577112198
leaf_count=38 36 28 20 20 30 23 20 21 29 20 39 39 33 20
internal_value=-6.29777e-05 -0.00945094 -0.00270812 0.00268315 -0.00284049 -0.0119517 0.00948188 0.00646671 -0.00454116 0.00553829 0.0143216 0.00673602 -0.0202941 -0.0276002
internal_weight=101.088 51.0691 31.679 22.9057 17.9451 10.5225 50.0191 40.8818 16.9357 9.75016 23.9461 14.5194 19.3901 11.4115
internal_count=416 210 129 93 73 43 206 168 69 40 99 60 81 48
is_linear=0
shrinkage=0.02


Tree=27
num_leaves=16
num_cat=0
split_feature=0 61 67 64 24 35 22 78 42 52 28 78 74 47 52
split_gain=28.069 6.08333 12.8237 5.45418 5.96551 5.99975 5.31878 4.21698 4.13869 3.83607 3.61678 3.724 2.15778 1.46829 0.757109
threshold=1.0000000180025095e-35 0.58333333333333337 2.8750000000000004 3.9583333333333339 63.087500000000006 3.9583333333333339 18.291666666666668 25.375000000000004 4.8750000000000009 33.625000000000007 2.2916666666666674 22.416666666666668 12.875000000000002 36.975000000000009 35.875000000000007
decision_type=2 2 2 2 2 2 2 2 2 2 2 2 2 2 2
left_child=1 2 9 4 -2 -6 -5 13 12 -1 11 -10 -3 -8 -15
right_child=3 8 -4 6 5 -7 7 -9 10 -11 -12 -13 -14 14 -16
leaf_value=0.0041874627414847983 -0.014551019256637168 0.014146355045346629 -0.015429289753026897 0.0020710089840482353 0.022256616744562772 -0.0078422695118904612 -0.016185176976710642 -0.0030587540041272262 0.013437425018133805 0.029286371189731125 0.021629371915364296 -0.0084802555121836799 0.032767094843784143 -0.03331984920736112 -0.020324491283857139
leaf_weight=5.0983868539333361 8.5479099601507205 5.0158424526453036 9.138662636280058 5.1479382067918804 5.4328007996082288 4.8801103532314301 7.7000933885574403 5.0704400241374961 6.5459601581096667 5.0536807328462601 6.7179197072982779 5.6269405633211136 6.9285127967596054 7.4493884742259961 4.7315373569726944
leaf_count=21 35 21 37 21 22 20 32 21 27 21 28 23 29 31 20
internal_value=0 0.0104933 0.00155511 -0.0107763 -0.0022019 0.0078831 -0.0160578 -0.0198713 0.0159973 0.0170405 0.00991037 0.00315644 0.025296 -0.0240222 -0.0286414
internal_weight=99.0861 50.1259 19.2907 48.9602 18.8608 10.3129 30.0994 24.9515 30.8352 10.1521 18.8908 12.1729 11.9444 19.881 12.1809
internal_count=409 207 79 202 77 42 125 104 128 42 78 50 50 83 51
is_linear=0
shrinkage=0.02


Tree=28
num_leaves=17
num_cat=0
split_feature=0 1 72 55 11 71 41 47 0 32 72 44 29 39 35 63
split_gain=18.6271 6.47567 6.75339 7.14852 6.44415 5.88067 4.89059 6.49654 4.29524 5.48227 4.62473 3.78961 2.84362 2.69938 1.30135 1.27026
threshold=1.0000000180025095e-35 44.750000000000007 43.07500000000001 0.70833333333333337 56.500000000000007 4.8750000000000009 14.41666666666667 36.800000000000004 7.7500000000000009 0.58333333333333337 44.737500000000004 20.291666666666668 7.0625000000000009 7.8750000000000009 4.0875000000000012 112.62500000000001
decision_type=2 2 2 2 10 2 2 2 2 2 2 2 2 2 2 2
left_child=1 2 3 13 -3 12 8 -8 9 14 11 -11 -5 -1 -2 -6
right_child=6 4 -4 5 15 -7 7 -9 -10 10 -12 -13 -14 -15 -16 -17
leaf_value=0.0083674740067336169 0.0098546848923700692 -0.0010781964369950057 -0.016427550951163179 -0.000163477841926063 0.031701557893321256 0.012860174490248856 -0.013119051225657914 0.014957866128265218 -0.027300702649934068 -0.028588905813702211 0.00020464029378651518 -0.0074803280254305609 -0.021474897327549824 0.029398319569160451 -0.0044365102100452627 0.016414596243794578
leaf_weight=5.091159254312517 4.8889419883489627 4.8361371010541943 5.9356869310140601 5.3691002428531664 7.0467899590730649 7.0596007257699958 6.339196562767027 6.6301168203353882 6.9321798086166373 9.719113156199457 5.3827217668294898 5.8006716519594184 4.934843897819519 5.5421120673418045 4.9152129888534546 4.7708075195550919
leaf_count=21 20 20 24 22 30 29 26 27 29 41 22 24 20 23 20 20
internal_value=-0.000772069 0.00778131 0.00268011 0.00684641 0.0179778 -0.000970199 -0.00935967 0.00108591 -0.0130053 -0.00963494 -0.0154141 -0.0209258 -0.0106706 0.019687 0.00251555 0.0258875
internal_weight=101.194 50.5862 33.9325 27.9968 16.6537 17.3635 50.6082 12.9693 37.6388 30.7067 20.9025 15.5198 10.3039 10.6333 9.80415 11.8176
internal_count=418 209 139 115 70 71 209 53 156 127 87 65 42 44 40 50
is_linear=0
shrinkage=0.02


Tree=29
num_leaves=15
num_cat=0
split_feature=0 61 43 67 67 41 7 23 43 69 48 60 49 45
split_gain=22.3357 6.12257 9.60271 7.03304 6.08422 6.10319 5.86519 3.78664 5.1535 3.4312 3.0736 3.06741 1.13901 0.823364
threshold=1.0000000180025095e-35 0.70833333333333337 44.737500000000004 2.8750000000000004 2.2916666666666674 13.875000000000002 7.5000000000000009 33.291666666666679 37.26250000000001 17.875000000000004 22.875000000000004 6.736250000000001 18.291666666666668 13.875000000000002
decision_type=2 2 2 2 2 2 2 2 2 2 2 2 2 2
left_child=1 3 9 10 5 -2 7 8 -6 -3 -1 -8 -11 -9
right_child=4 2 -4 -5 6 -7 11 13 -10 12 -12 -13 -14 -15
leaf_value=0.0014809183702178058 -0.00864065702269152 0.009666483131463996 -0.0019983088212677763 -0.011331202418340094 0.0015761834842799084 0.020029537037741376 -0.010971917682769308 -0.030296855819261413 -0.022080361223076814 0.018662135302090488 0.024166355113308145 0.011222298788961261 0.032222350618381621 -0.017594605104504172
leaf_weight=5.1406832635402697 7.0583137869834882 6.476405978202826 8.7960557639598829 9.3882100433111173 6.97511173784733 4.9351926445960999 4.8797722607851011 8.0909482538700086 7.3466513305902481 5.2665628194808951 4.7429327964782715 4.8824151009321213 9.9206987917423231 4.8536182343959799
leaf_count=21 29 27 36 38 29 20 20 34 31 22 20 20 42 20
internal_value=0.000382449 0.00983553 0.0154071 0.000892235 -0.00916724 0.0030595 -0.0131789 -0.0179268 -0.0104892 0.0225427 0.0127005 0 0.0278037 -0.0258588
internal_weight=98.7536 49.7315 30.4597 19.2718 49.022 11.9935 37.0285 27.2663 14.3218 21.6637 9.88362 9.76219 15.1873 12.9446
internal_count=409 206 127 79 203 49 154 114 60 91 41 40 64 54
is_linear=0
shrinkage=0.02


Tree=30
num_leaves=14
num_cat=0
split_feature=0 35 72 72 1 46 77 58 64 73 35 36 24
split_gain=20.1376 7.32916 6.58138 5.80457 4.61588 4.61339 4.42645 5.45594 4.28376 2.66344 2.82331 2.29831 1.78024
threshold=1.0000000180025095e-35 3.9583333333333339 48.025000000000006 42.750000000000007 44.250000000000007 5.8750000000000009 18.291666666666668 6.9875000000000016 3.9583333333333339 20.875000000000004 4.4875000000000007 10.125000000000002 63.237500000000011
decision_type=2 2 2 2 2 2 2 2 2 2 2 2 2
left_child=1 3 4 8 6 9 -2 12 -1 10 -3 -6 -8
right_child=2 5 -4 -5 11 -7 7 -9 -10 -11 -12 -13 -14
leaf_value=-0.0040033244733031588 0.0080716843942359659 0.02412078141423386 0.006893273638240216 -0.017819364587497367 -0.013212934363893068 0.0025605689994833702 -0.027445468516561856 0.0004700266570780503 0.018553565895217231 0.032175323243324519 0.0069117162809188316 -0.031203719251807489 -0.010250000157456918
leaf_weight=6.6226511150598544 5.9094471931457546 8.3510972559452146 9.0384087264537794 5.1507049202918997 7.0798105597496015 7.9392873644828788 6.4851125031709689 8.5485578775405866 6.4662610441446304 6.1599897742271414 7.9102320522069922 5.8350841253995895 4.8352899700403214
leaf_count=27 24 35 37 21 30 33 27 35 27 26 33 25 20
internal_value=0.000920317 0.00999101 -0.00827519 0 -0.0118786 0.0159949 -0.0068299 -0.0113803 0.0070449 0.0206306 0.0159652 -0.0216723 -0.0204299
internal_weight=96.3319 48.6002 47.7317 18.2396 38.6933 30.3606 25.7784 19.869 13.0889 22.4213 16.2613 12.9149 11.3204
internal_count=400 202 198 75 161 127 106 82 54 94 68 55 47
is_linear=0
shrinkage=0.02


Tree=31
num_leaves=15
num_cat=0
split_feature=0 32 38 35 53 1 1 72 77 12 25 53 43 12
split_gain=20.6504 6.46717 9.15979 6.39895 7.63777 6.36853 6.2007 5.66374 5.52888 2.89012 2.1776 1.76174 0.458775 0.110004
threshold=1.0000000180025095e-35 0.70833333333333337 2.8750000000000004 3.9583333333333339 61.45000000000001 42.250000000000007 38.750000000000007 44.825000000000003 24.875000000000004 10.500000000000002 210.12500000000003 61.712500000000013 35.487500000000004 1.0000000180025095e-35
decision_type=2 2 2 2 2 2 2 2 2 8 2 2 2 10
left_child=3 2 8 4 -1 -6 -5 9 -2 12 -8 -12 -3 -13
right_child=1 7 -4 6 5 -7 10 -9 -10 -11 11 13 -14 -15
leaf_value=0.018920535344117723 0 -0.020143607766022746 0.013759541226889343 -0.0026859842565945514 -0.0218418852013651 0.0058270285123210395 0.0096564371897743632 -0.0012717385979515695 -0.027678133459898457 -0.0090103608493013309 0.013194683282435744 0.022820448947898905 -0.031269344192331426 0.031969917860319108
leaf_weight=6.2589594721794155 6.6018524616956729 4.7574000507593208 9.6519662588834745 5.5781383514404324 6.4280228167772275 6.5514054298400879 6.2799787819385555 8.0567494481801969 5.1667099893093109 5.5330795496702185 4.9974512606859234 4.6573515534400922 7.4195053577423096 7.0756296217441559
leaf_count=26 27 20 39 23 26 27 26 33 22 23 21 20 32 30
internal_value=0.000620847 -0.00873432 -0.000507291 0.00989159 0.000852632 -0.00778523 0.0158804 -0.0154679 -0.0123941 -0.0217705 0.0204599 0.0243148 -0.027285 0.0287306
internal_weight=95.0142 47.1873 21.4205 47.8269 19.2384 12.9794 28.5885 25.7667 11.7686 17.71 23.0104 16.7304 12.1769 11.733
internal_count=395 196 88 199 79 53 120 108 49 75 97 71 52 50
is_linear=0
shrinkage=0.02


Tree=32
num_leaves=14
num_cat=0
split_feature=0 61 67 48 67 29 41 27 30 43 78 47 43
split_gain=27.0229 7.95024 6.93903 5.75935 5.31774 5.33235 8.67493 5.08884 4.19866 3.78173 3.08727 3.05051 1.31835
threshold=1.0000000180025095e-35 0.70833333333333337 2.8750000000000004 24.875000000000004 2.4166666666666674 7.0125000000000011 12.875000000000002 84.437500000000014 5.628750000000001 44.962500000000006 21.625000000000004 38.087500000000013 36.062500000000007
decision_type=2 2 2 2 2 2 2 2 2 2 2 2 2
left_child=1 2 3 -1 7 6 -6 -2 12 10 -3 -12 -8
right_child=4 9 -4 -5 5 -7 8 -9 -10 -11 11 -13 -14
leaf_value=-0.0026713337568126201 -0.013224567445419284 0.030004364195648826 -0.013474191142516643 0.026965965610388637 0.0072115381665104625 -0.029484040285140949 -0.032596132424311294 0.011692880740371643 -0.0073880126046541802 0.0042374989688938646 0.002875651172945724 0.024504460556096869 -0.017025246812790568
leaf_weight=5.5792844593524951 6.3158091604709607 8.9516740143299156 8.6320879161357862 4.6508638262748718 7.4236924350261715 8.4246914237737638 6.219432935118677 6.5930409878492355 9.3645230084657651 7.744632124900817 5.7245914936065656 5.1439374685287476 5.1649262607097626
leaf_count=23 26 38 35 20 31 36 26 27 39 32 24 22 22
internal_value=-0.0012689 0.0096581 -0.000248782 0.0107395 -0.0115554 -0.0154408 -0.0110811 -0.000352481 -0.0177252 0.0164859 0.0211262 0.0134247 -0.0259157
internal_weight=95.9332 46.4271 18.8622 10.2301 49.5061 36.5973 28.1726 12.9089 20.7489 27.5648 19.8202 10.8685 11.3844
internal_count=401 194 78 43 207 154 118 53 87 116 84 46 48
is_linear=0
shrinkage=0.02


Tree=33
num_leaves=15
num_cat=0
split_feature=0 12 51 72 43 61 24 37 48 43 32 43 0 60
split_gain=22.2826 7.05516 6.04007 5.97457 5.9726 6.03516 4.76427 5.13105 4.73177 4.56726 3.55008 2.89848 2.55231 0.650724
threshold=2.7500000000000004 7.5000000000000009 16.875000000000004 47.650000000000013 48.770833333333343 0.58333333333333337 68.887500000000017 2.8750000000000004 18.291666666666668 44.737500000000004 0.58333333333333337 37.675000000000011 -1.7499999999999998 6.7112500000000006
decision_type=2 8 2 2 2 2 2 2 2 2 2 2 2 2
left_child=2 10 -1 -3 5 6 7 -4 -7 12 11 -2 -10 -12
right_child=1 3 4 -5 -6 8 -8 -9 9 -11 13 -13 -14 -15
leaf_value=-0.013513209661419397 -0.020979583598910324 -0.011815284904466062 0.0071255191445874361 0.015466098829568935 -0.0065884173966376438 0 0.017830111405060085 -0.016791389923499784 0.029719643955673766 0.0049013686726111713 -0.031148859928610762 0.00050659782676870592 0.013176136677011936 -0.018934338710676967
leaf_weight=5.1284372061491004 4.7619202584028262 8.1245384365320188 7.7927328199148196 5.1517743468284598 8.4619634896516782 5.6007542014122 5.7332999408245078 6.4017157405614853 14.031501621007919 6.3250901252031317 7.6400575935840589 4.8219656050205231 6.1151727139949843 4.6362378150224686
leaf_count=21 20 34 32 21 35 23 24 26 61 26 33 20 25 20
internal_value=9.04854e-05 -0.0127206 0.00699267 -0.00104295 0.00878446 0.0113323 0.00255023 -0.00356313 0.0167019 0.0202232 -0.0196847 -0.0100691 0.0248868 -0.0268878
internal_weight=100.727 35.1365 65.5907 13.2763 60.4622 52.0003 19.9277 14.1944 32.0725 26.4718 21.8602 9.58389 20.1467 12.2763
internal_count=421 148 273 55 252 217 82 58 135 112 93 40 86 53
is_linear=0
shrinkage=0.02


Tree=34
num_leaves=14
num_cat=0
split_feature=0 64 75 61 67 69 27 48 12 49 42 44 57
split_gain=21.7338 8.74607 8.1496 6.67709 8.91984 4.83291 4.57118 4.48348 3.97164 2.90864 3.56919 2.58215 2.89671
threshold=-1.2499999999999998 3.9583333333333339 5.8750000000000009 0.70833333333333337 2.8750000000000004 17.875000000000004 89.262500000000017 24.875000000000004 10.500000000000002 21.875000000000004 5.416666666666667 20.583333333333339 2.4166666666666674
decision_type=2 2 2 2 2 2 2 2 10 2 2 2 2
left_child=3 6 11 4 7 -6 -2 -1 9 10 -5 12 -3
right_child=1 2 -4 8 5 -7 -8 -9 -10 -11 -12 -13 -14
leaf_value=0.00076187858679075283 -0.0088747800325356691 -0.0082936975237994023 0.00073387481660875731 0.025085991960706301 0.0009925549160477872 -0.026479973818118906 0.01089908245951287 0.027008054295966373 0 0.028979668268951608 0.0033089954385068687 -0.032050618835079453 -0.02692632765729254
leaf_weight=5.5882757902145404 8.9476501345634478 7.9714151322841698 8.152241110801695 5.6046478748321586 4.923604950308798 4.937910720705986 9.5253235846757871 5.0662987977266312 5.0536273568868628 8.7415174990892393 6.9740836769342422 7.7497718334197989 6.4356809109449387
leaf_count=23 37 34 34 24 20 20 39 22 21 38 29 33 27
internal_value=-0.00017332 -0.00953 -0.0161286 0.00951793 0.000846325 -0.0126906 0.00121743 0.0135631 0.0161593 0.0199222 0.0132911 -0.0223982 -0.016883
internal_weight=95.672 48.7821 30.3091 46.89 20.5161 9.86152 18.473 10.6546 26.3739 21.3202 12.5787 22.1569 14.4071
internal_count=401 204 128 197 85 40 76 45 112 91 53 94 61
is_linear=0
shrinkage=0.02


Tree=35
num_leaves=15
num_cat=0
split_feature=0 11 66 61 12 1 58 66 49 53 71 68 42 72
split_gain=18.8553 5.94807 5.23339 8.96022 5.8334 5.09635 5.99526 6.05003 4.94989 4.07106 3.89263 2.8848 2.66233 2.30543
threshold=1.0000000180025095e-35 49.500000000000007 1.8750000000000002 0.58333333333333337 5.5000000000000009 44.750000000000007 7.0125000000000011 2.8750000000000004 22.416666666666668 65.71250000000002 5.1250000000000009 9.2916666666666696 4.8750000000000009 43.675000000000004
decision_type=2 8 2 2 8 2 2 2 2 2 2 2 2 2
left_child=2 9 12 4 -4 6 7 -3 10 -2 -5 -8 -1 -7
right_child=1 5 3 8 -6 13 11 -9 -10 -11 -12 -13 -14 -15
leaf_value=0.031195600121672232 -0.0077597479820381574 -0.02573381389056285 0.0056243498347757874 -0.0074905963861874782 -0.018442801446878054 -0.030142164779933731 0.015427293123154467 0 0.026404648712234909 0.016573110402835718 0.01484591100876056 -0.0057544049257553581 0.011954623908089492 -0.012195819699297563
leaf_weight=5.1252139061689368 5.2723220437765104 8.5222819596529025 7.9151799231767628 5.0568050295114535 7.851699873805047 7.236934766173361 5.1406236439943296 6.296366110444068 7.6374792754650107 5.4229861944913864 7.5545320510864258 4.7992848306894302 8.102138936519621 5.875134289264679
leaf_count=22 22 36 33 21 32 32 21 26 33 22 32 20 34 25
internal_value=0.000242452 -0.00856993 0.00897395 0.00492154 -0.00627543 -0.0122966 -0.00679389 -0.01485 0.0137264 0.00443204 0.00574377 0.00504548 0.0197381 -0.0224055
internal_weight=97.809 48.5659 49.243 36.0157 15.7669 37.8706 24.7586 14.8186 20.2488 10.6953 12.6113 9.93991 13.2274 13.1121
internal_count=411 204 207 151 65 160 103 62 86 44 53 41 56 57
is_linear=0
shrinkage=0.02


Tree=36
num_leaves=14
num_cat=0
split_feature=0 36 77 53 0 27 48 43 69 11 25 28 22
split_gain=15.8985 5.51203 7.45323 6.77467 8.76441 5.55668 10.2546 5.17059 5.13963 3.30916 3.13763 2.22825 0.810229
threshold=-2.7499999999999996 12.29166666666667 23.375000000000004 60.850000000000009 2.7500000000000004 82.425000000000026 20.875000000000004 48.025000000000006 16.583333333333339 60.000000000000007 239.00000000000003 2.4166666666666674 21.875000000000004
decision_type=2 2 2 2 2 2 2 2 2 8 2 2 2
left_child=7 3 -3 -2 10 9 -7 8 -1 -6 -5 -10 -13
right_child=1 2 -4 4 5 6 -8 -9 11 -11 -12 12 -14
leaf_value=0.0021128783118259378 -0.017369274515034731 0 -0.028244069991000958 0.021405631005492781 -0.0041518670494429888 0.025917553474795234 -0.010668279728746049 -0.0036532953300765099 0.028970321503121274 -0.027256155875314124 0.0010196728867901826 0.02017695773313908 0.0073863378696804229
leaf_weight=7.880067020654681 8.7526675164699537 6.5689155459403983 8.2413779497146589 9.1421495974063856 5.1165511906147021 4.8770321160554868 7.8119355589151382 6.4684942215681067 9.1626054495573062 5.2787705808877945 4.8164242357015601 4.8988498747348768 4.6929774135351181
leaf_count=33 37 27 35 38 21 20 33 27 40 23 20 21 20
internal_value=0.000947234 -0.00511665 -0.0156949 -0.00162531 0.00207765 -0.0054208 0.00332988 0.0120914 0.0159893 -0.0162228 0.014571 0.0216716 0.0142661
internal_weight=93.7088 60.6058 14.8103 45.7955 37.0429 23.0843 12.689 33.103 26.6345 10.3953 13.9586 18.7544 9.59183
internal_count=395 254 62 192 155 97 53 141 114 44 58 81 41
is_linear=0
shrinkage=0.02


Tree=37
num_leaves=15
num_cat=0
split_feature=0 39 31 62 39 78 64 22 2 45 44 36 78 75
split_gain=17.7384 5.82074 6.91151 9.86532 7.89614 4.48407 5.6369 8.20247 4.76295 4.41554 5.89752 3.14412 2.95584 0.831418
threshold=1.7500000000000002 11.125000000000002 6.0762500000000008 26.583333333333339 9.5833333333333339 22.416666666666668 4.1125000000000007 21.291666666666668 8.5000000000000018 12.29166666666667 19.875000000000004 9.5833333333333339 25.583333333333339 5.1250000000000009
decision_type=2 2 2 2 2 2 2 2 2 2 2 2 2 2
left_child=1 2 9 4 -4 6 8 -8 -2 -1 -11 -5 13 -7
right_child=5 -3 3 11 -6 12 7 -9 -10 10 -12 -13 -14 -15
leaf_value=0.029417896356876635 0.019963684334217146 0.021664900873802507 0.019807342609724089 -0.029520006922587792 -0.011021884469193236 -0.017578064778052131 0.0014730513935523059 -0.028525530929308145 -0.005176495086495537 -0.0042808344562375797 0.020362371671721818 -0.0066407451325819801 -0.0063539619899732735 -0.030996006575332278
leaf_weight=4.7570572346448925 4.9228552579879779 9.023896858096121 8.409289017319681 4.9246186017990095 5.2816255539655677 5.3699977099895495 7.1038216799497587 7.1206163913011551 7.2690598368644714 8.1426969617605192 7.1092890799045554 5.288166344165802 5.8668400645256034 5.3223018199205399
leaf_count=20 20 39 36 20 22 23 30 31 30 34 30 22 25 23
internal_value=-0.00064761 0.00707413 0.00398793 -0.00320273 0.00777546 -0.0101999 -0.00494908 -0.0134986 0.00489174 0.0126509 0.00713345 -0.0180464 -0.0183764 -0.0246677
internal_weight=95.9121 52.9366 43.9127 23.9037 13.6909 42.9755 26.4164 14.2244 12.1919 20.009 15.252 10.2128 16.5591 10.6923
internal_count=405 223 184 100 58 182 111 61 50 84 64 42 71 46
is_linear=0
shrinkage=0.02


Tree=38
num_leaves=15
num_cat=0
split_feature=0 12 32 48 27 11 41 30 8 25 75 73 1 76
split_gain=15.1547 5.93956 6.30173 5.66754 7.72614 6.57193 8.48711 5.39638 3.98589 2.80863 2.5693 2.28007 1.39136 0.115292
threshold=2.7500000000000004 8.5000000000000018 0.29166666666666669 19.125000000000004 80.012500000000003 49.500000000000007 13.125000000000002 6.0137500000000008 7.5000000000000009 285.75000000000006 5.1250000000000009 17.875000000000004 43.250000000000007 43.466666666666676
decision_type=2 8 2 2 2 10 2 2 2 2 2 2 2 2
left_child=3 2 -2 4 -1 6 -5 -3 9 10 -7 -4 -12 -13
right_child=1 7 11 5 -6 8 -8 -9 -10 -11 12 13 -14 -15
leaf_value=0.0098766495064333323 0.0020889751140866428 0.010833610115826826 -0.010789331843649125 -0.016648456208218098 -0.019805927679281989 0.028377487258639505 0.013549432696335418 -0.0151325880005613 0.0019939223349439853 0.0037653190944224525 0.020742491842794201 -0.030750724565412155 0.0045945523923798335 -0.021789596439160432
leaf_weight=6.5032092779874784 5.0684752762317684 7.4993819743394834 5.1552405953407314 7.7673488259315473 7.281542956829071 10.171333834528928 6.9319832772016525 5.4312722831964493 9.031788691878317 4.9499287754297248 4.7192394733428937 7.5210286080837232 4.6639796942472458 4.5585607588291168
leaf_count=27 21 31 22 32 30 44 29 23 38 21 20 33 20 20
internal_value=-0.000423911 -0.0108999 -0.0171298 0.00550332 -0.00568831 0.00874819 -0.00227712 0 0.0136326 0.0178155 0.021233 -0.0228765 0.0130601 -0.0277399
internal_weight=97.2543 35.234 22.3033 62.0204 13.7848 48.2356 14.6993 12.9307 33.5363 24.5045 19.5546 17.2348 9.38322 12.0796
internal_count=411 150 96 261 57 204 61 54 143 105 84 75 40 53
is_linear=0
shrinkage=0.02


Tree=39
num_leaves=15
num_cat=0
split_feature=38 69 45 7 78 59 49 52 72 26 74 37 73 77
split_gain=7.14014 5.24987 5.37708 3.99022 4.56198 4.60256 5.96152 7.23184 5.63734 5.35722 4.16485 2.69324 2.61515 1.85288
threshold=2.4166666666666674 22.291666666666668 13.41666666666667 9.5000000000000018 27.291666666666668 7.3837500000000009 20.291666666666668 31.875000000000004 35.358333333333341 0.87500000000000011 12.625000000000002 2.2916666666666674 19.375000000000004 20.375000000000004
decision_type=2 2 2 2 2 2 2 2 2 2 2 2 2 2
left_child=1 2 12 4 5 6 7 -2 -9 10 -8 -4 -1 -11
right_child=3 -3 11 -5 -6 -7 9 8 -10 13 -12 -13 -14 -15
leaf_value=-0.0054780373906178331 -0.028645919188710282 -0.025386064759307922 -0.0015685369739699524 0.016036357335913506 0.015400739088222764 0.013638398974357592 -0.0023034631928455589 -0.019514409591011625 0.0076427763423568777 -0.016323254456004015 0.020542542390453875 -0.021502481193364044 0.013047426108945057 0.00083768749325466004
leaf_weight=5.0246628969907814 6.4342207461595562 5.6974028050899497 4.802243843674658 8.8129152655601484 8.1077137589454633 7.4607736617326728 4.9161523878574398 4.8078617602586728 7.9173968434333801 4.794940769672392 8.2080010920762998 6.9547619968652725 7.1043391525745392 4.7331342399120331
leaf_count=21 27 25 20 37 35 31 21 20 34 20 35 29 30 20
internal_value=-6.88122e-05 -0.00824139 -0.00397979 0.00356048 0.00158497 -0.000674476 -0.00330259 -0.0115101 -0.00253397 0.00357153 0.0118808 -0.0136109 0.00522733 -0.00767056
internal_weight=95.7765 29.5834 23.886 66.1931 57.3802 49.2725 41.8117 19.1595 12.7253 22.6522 13.1242 11.757 12.129 9.52808
internal_count=405 125 100 280 243 208 177 81 54 96 56 49 51 40
is_linear=0
shrinkage=0.02


Tree=40
num_leaves=14
num_cat=0
split_feature=0 8 29 35 53 53 74 76 52 72 56 74 64
split_gain=15.4549 6.96884 6.17171 4.58217 6.49951 8.95237 4.99961 4.60324 4.56717 4.16712 6.5449 4.24621 0.612774
threshold=2.7500000000000004 7.5000000000000009 6.7875000000000014 3.7625000000000006 61.662500000000009 68.562500000000014 13.708333333333334 36.550000000000004 37.375000000000007 43.275000000000006 89.937500000000014 12.875000000000002 4.3583333333333343
decision_type=2 2 2 2 2 2 2 2 2 2 2 2 2
left_child=1 3 -3 7 6 12 -5 -1 9 10 -2 -11 -6
right_child=8 2 -4 4 5 -7 -8 -9 -10 11 -12 -13 -14
leaf_value=0.011100697050071402 -0.00083626511826733277 0.0074501116477611075 -0.018500921468724778 -0.013258137257797302 0.032259544187897372 0.00016646656821846104 0.012298430255554113 -0.011368380070811921 -0.025695294045751479 -0.010139546603398197 -0.026134261175261513 0.013516712765281054 0.020500558651450135
leaf_weight=6.925716891884802 8.0681710690259987 6.4373659342527381 8.0708370655775052 5.2276413142681104 9.4764096140861529 6.5771819353103629 7.0567406862974167 7.467835545539856 7.1344871371984473 6.1010124087333661 8.5812800973653776 5.809617206454277 4.6737685799598685
leaf_count=29 34 27 33 22 41 28 30 31 31 26 38 24 20
internal_value=-0.000878302 0.00514052 -0.00687723 0.00886734 0.0129649 0.0197772 0.00124205 -0.000416991 -0.0113592 -0.00763105 -0.0140727 0.00124916 0.028687
internal_weight=97.6081 61.9135 14.5082 47.4053 33.0117 20.7274 12.2844 14.3936 35.6946 28.5601 16.6495 11.9106 14.1502
internal_count=414 261 60 201 141 89 52 60 153 122 72 50 61
is_linear=0
shrinkage=0.02


Tree=41
num_leaves=14
num_cat=0
split_feature=0 35 53 47 32 38 40 72 55 43 10 27 49
split_gain=19.591 6.09365 10.4613 5.4792 4.34318 6.93326 5.7617 5.54899 4.50618 4.20496 7.18027 2.91997 2.41233
threshold=1.0000000180025095e-35 3.9583333333333339 59.87916666666667 35.712500000000013 0.70833333333333337 2.8750000000000004 17.583333333333339 44.737500000000004 0.87500000000000011 48.912500000000009 38.750000000000007 89.937500000000014 22.416666666666668
decision_type=2 2 2 2 2 2 2 2 2 2 2 2 2
left_child=1 2 -1 -4 5 8 -7 12 -2 10 -3 -12 -6
right_child=4 9 3 -5 7 6 -8 -9 -10 -11 11 -13 -14
leaf_value=0.024551886801442106 -0.024945131655518957 -0.0030019107214736356 -0.024150059443197758 0.00097130094551473457 -0.0281124897515602 -0.0053831731820858375 0.024076128217282538 -0.001333367975267386 0.00026091285865117493 -0.00054191258378080785 0.01171562454265509 0.029039387885672011 -0.012702734260543318
leaf_weight=4.9198866784572628 6.0089564919471758 5.0456569790840211 5.6312964707612982 8.4322936832904798 9.3885702490806633 5.1340525001287443 5.156610444188118 8.8738064616918546 5.0042998045682907 5.9668439924716941 6.533632010221484 12.813912510871885 8.8088170140981656
leaf_count=21 26 21 23 35 42 21 21 37 21 25 28 57 38
internal_value=-0.000198677 0.00863852 -0.000150708 -0.00904599 -0.00925326 -0.00236751 0.00927593 -0.0145698 -0.0134125 0.0141823 0.0178532 0.0233823 -0.0208726
internal_weight=97.7186 49.3435 18.9835 14.0636 48.3751 21.3039 10.2907 27.0712 11.0133 30.36 24.3932 19.3475 18.1974
internal_count=416 210 79 58 206 89 42 117 47 131 106 85 80
is_linear=0
shrinkage=0.02


Tree=42
num_leaves=17
num_cat=0
split_feature=67 50 40 60 67 52 44 72 33 23 64 52 73 64 73 53
split_gain=6.38249 7.28679 7.1807 5.14605 6.96268 5.46012 4.79952 6.64412 5.23051 4.05047 6.86771 3.79049 3.34121 3.6076 3.56331 2.41576
threshold=2.4166666666666674 0.70833333333333337 22.125000000000004 6.2262500000000012 3.8750000000000004 31.875000000000004 18.583333333333339 39.000000000000007 24.875000000000004 33.291666666666679 4.3125000000000009 33.125000000000007 21.416666666666668 3.5291666666666672 18.291666666666668 67.112500000000026
decision_type=2 2 2 2 2 2 2 2 2 2 2 2 2 2 2 2
left_child=2 -2 12 6 9 -6 11 8 -8 10 -5 -3 13 -1 -15 -11
right_child=1 3 -4 4 5 -7 7 -9 -10 15 -12 -13 -14 14 -16 -17
leaf_value=-0.0084414115789529544 0.01471589792694584 -0.0076747757314340834 0.026052491950777742 0.017952531784862974 -0.0024535204160989251 0.024857248072847195 -0.011305012630418221 -0.024062486756970515 0.015158829634657074 -0.006309505278609834 -0.014465285565736091 -0.031856591878828097 -0.011895482138021645 -0.0011998883825901777 0.01964346259570909 -0.026290471847763279
leaf_weight=4.8003942817449667 7.2824415862560263 4.6613554209470767 6.2344681024551383 4.9704983681440371 5.4177410006523115 5.9401877075433731 5.4402558654546755 5.2170995324850074 6.3133393377065659 5.3258680850267393 5.2770680040121078 6.8727746158838272 5.2317942678928366 5.1463771164417258 8.1391239017248136 5.0762405693531036
leaf_count=20 31 20 28 21 23 25 23 22 27 23 23 29 22 22 34 22
internal_value=-0.000575377 -0.00397463 0.00714242 -0.00627753 -0.000699782 0.0117477 -0.0124464 -0.00546882 0.00274904 -0.00766628 0.00108697 -0.0224057 0.00191135 0.00605874 0.0114714 -0.0164082
internal_weight=97.347 67.7949 29.5522 60.5124 32.0076 11.3579 28.5048 16.9707 11.7536 20.6497 10.2476 11.5341 23.3177 18.0859 13.2855 10.4021
internal_count=415 289 126 258 137 48 121 72 50 89 44 49 98 76 56 45
is_linear=0
shrinkage=0.02


Tree=43
num_leaves=15
num_cat=0
split_feature=0 38 63 37 39 33 69 38 70 32 65 36 41 47
split_gain=18.1858 5.51784 5.11575 7.64127 6.14557 6.72992 5.09491 4.34474 3.60617 3.53929 3.34321 1.97764 0.529351 0.0540519
threshold=1.0000000180025095e-35 2.4166666666666674 81.375000000000014 1.8750000000000002 8.8750000000000018 24.375000000000004 16.583333333333339 3.8750000000000004 13.125000000000002 0.58333333333333337 9.5833333333333339 8.8750000000000018 13.875000000000002 36.087500000000013
decision_type=2 2 2 2 2 2 2 2 2 2 2 2 2 2
left_child=1 8 -2 12 5 -5 -3 11 -1 -6 -7 -8 -4 -13
right_child=2 6 3 4 9 10 7 -9 -10 -11 -12 13 -14 -15
leaf_value=0.01031739730867175 0.0088591072314530266 -0.00098274271715356222 -0.031335611961994324 -0.015768660713789177 -0.0026487209324276167 0.024609406573754242 0.012486549141360609 0.0048572461540584847 -0.011661555442572951 -0.022944777383309804 0.00071972520462250172 0.022036791087864598 -0.019149840204679924 0.03050842170129205
leaf_weight=4.9580828100442869 5.5394517332315436 7.5902878642082205 5.5790728628635389 4.8292630612850216 5.9720790088176718 4.7589082121849042 5.9633806645870271 8.1526252925395948 7.0744618922472 8.9607808887958509 4.8835032433271408 4.5529953241348249 4.6362984180450439 7.497604563832283
leaf_count=21 23 32 24 21 25 20 26 35 29 39 21 20 20 33
internal_value=0.000152049 0.00904537 -0.00882123 -0.0113596 -0.00605151 0.00311795 0.0131898 0.0173652 -0.00242976 -0.0150325 0.0128471 0.0228574 -0.0262382 0.02768
internal_weight=90.9488 45.7894 45.1594 39.6199 29.4045 14.4717 33.7569 26.1666 12.0325 14.9329 9.64241 18.014 10.2154 12.0506
internal_count=389 196 193 170 126 62 146 114 50 64 41 79 44 53
is_linear=0
shrinkage=0.02


Tree=44
num_leaves=16
num_cat=0
split_feature=67 25 31 50 58 27 56 66 24 21 62 30 52 29 25
split_gain=6.84919 6.94364 4.70197 4.31243 4.75888 7.13803 5.83281 5.23645 5.11422 4.32077 7.56108 3.83114 2.98418 2.67865 1.70624
threshold=2.4166666666666674 212.00000000000003 4.2600000000000007 0.70833333333333337 7.0125000000000011 96.225000000000009 109.13750000000002 3.1250000000000004 68.787500000000023 1.2916666666666667 25.875000000000004 6.6975000000000007 32.375000000000007 7.7583333333333337 205.58333333333334
decision_type=2 2 2 2 2 2 2 2 2 2 2 2 2 2 2
left_child=1 2 -1 -2 8 6 7 -6 9 12 -11 -3 -5 -13 -14
right_child=3 11 -4 4 5 -7 -8 -9 -10 10 -12 13 14 -15 -16
leaf_value=0.011667791544120808 0.012726391319495748 0.029514053536551611 -0.012764007778584795 -0.0046611766891347097 0.026779217207719773 -0.013270913389511006 -0.00854447643330619 0.00063021088744604577 0.0059493965678091201 0.014991642620352305 -0.019936593406738281 -0.0013276694468458122 -0.017080106514971372 0.019824932483842102 -0.033226443420075281
leaf_weight=5.5253573954105395 6.5255959182977668 6.6681014746427527 7.0007840394973755 4.9140356183052125 7.6879366934299522 8.0722637772560102 5.1079079806804648 5.3211897760629654 7.027210906147956 4.9743111580610258 4.724122017621994 4.6009594649076444 8.2715586870908719 4.5268575549125671 5.0448264777660361
leaf_count=23 28 29 30 21 32 35 22 23 30 21 20 20 36 20 22
internal_value=0.000900956 0.0091563 -0.00182154 -0.00253302 -0.00421232 0.00216891 0.00919318 0.0163223 -0.00904278 -0.0128941 -0.00184767 0.0179442 -0.0186195 0.00904719 -0.0235482
internal_weight=95.993 28.3221 12.5261 67.671 61.1454 26.1893 18.117 13.0091 34.9561 27.9289 9.69843 15.7959 18.2304 9.12782 13.3164
internal_count=412 122 53 290 262 112 77 55 150 120 41 69 79 40 58
is_linear=0
shrinkage=0.02


Tree=45
num_leaves=14
num_cat=0
split_feature=0 77 56 12 67 44 55 32 66 71 27 38 0
split_gain=13.2001 5.56163 5.69687 5.13998 5.08351 5.46598 5.37414 3.8506 4.67034 4.29002 2.8206 2.59123 1.12374
threshold=-1.2499999999999998 22.875000000000004 89.387500000000017 1.0000000180025095e-35 2.4166666666666674 18.875000000000004 0.29166666666666669 0.87500000000000011 2.1250000000000004 5.5833333333333348 94.537500000000009 2.8750000000000004 3.7500000000000004
decision_type=2 2 2 10 2 2 2 2 2 2 2 2 2
left_child=1 2 3 -1 5 -2 -6 8 -8 -10 -3 -5 -9
right_child=4 10 -4 11 6 -7 7 12 9 -11 -12 -13 -14
leaf_value=0.022965977380015056 0.020182572807049302 0.028569268790979607 -0.0096012890018533758 -0.0058009141838612898 0.0074413441601761015 -0.006065227727934136 -0.023502862181773491 -0.030092610443450997 -0.011459702547250743 0.011370734810420639 0.010143629132421337 0.010476063837069401 -0.015223667933426156
leaf_weight=7.2390022724866929 5.1012393534183484 6.6416630893945676 8.8759305477142316 7.4802003204822523 5.4867372661828986 7.8977232426404953 5.4468033313751283 5.6137385070323926 7.4689155817031843 5.6921620965003967 7.8462001532316208 7.8368520140647888 5.0154510140419006
leaf_count=32 21 29 37 31 23 33 24 25 32 24 34 34 22
internal_value=0.000957188 0.00862127 0.00379113 0.00916851 -0.00637814 0.00415807 -0.0103804 -0.0138071 -0.00808441 -0.00142344 0.0188655 0.00241128 -0.0234703
internal_weight=93.6426 45.9198 31.432 22.5561 47.7228 12.999 34.7238 29.2371 18.6079 13.1611 14.4879 15.3171 10.6292
internal_count=401 197 134 97 204 54 150 127 80 56 63 65 47
is_linear=0
shrinkage=0.02


Tree=46
num_leaves=16
num_cat=0
split_feature=0 61 43 66 48 48 38 12 51 76 35 45 0 0 25
split_gain=16.0742 5.70263 6.07725 5.76731 5.65599 5.34589 8.99847 6.21277 4.42255 6.22843 3.62091 2.40113 1.83158 1.20774 0.938978
threshold=2.7500000000000004 0.70833333333333337 44.825000000000003 2.5833333333333335 18.291666666666668 22.875000000000004 3.1250000000000004 7.5000000000000009 20.291666666666668 42.087500000000013 4.1125000000000007 13.41666666666667 -1.2499999999999998 4.7500000000000009 252.12500000000003
decision_type=2 2 2 2 2 2 2 8 2 2 2 2 2 2 2
left_child=1 8 4 -4 -3 6 7 11 -1 10 -10 -2 14 -7 -6
right_child=5 2 3 -5 12 13 -8 -9 9 -11 -12 -13 -14 -15 -16
leaf_value=-0.01451314474298193 -0.029827114763082904 -0.0013562046700384114 -0.014584871647070263 0.014810437383851452 0.029446335255165261 -0.028950616896936409 0.013169154271613812 0.0041978978724904106 0.0037224657445947529 -0.010774938590972779 0.027083418338272148 -0.010690671006608867 0.010946568217810076 -0.013414752563053071 0.016258180498212968
leaf_weight=6.5658994764089611 6.2348823249340111 4.9870981872081783 5.5915887802839261 4.9169270694255829 10.321075156331064 5.6402562856674177 7.3904796391725531 5.4981505870819083 6.7269746512174624 6.5027154535055152 4.604096308350563 5.5019351989030838 5.2687353491783133 4.5641258805990219 4.3680482655763617
leaf_count=27 28 21 23 21 47 26 31 23 28 27 20 24 22 20 20
internal_value=0.000529081 0.00683193 0.0119445 -0.000632342 0.0173039 -0.0102333 -0.00504322 -0.0129991 -0.00053351 0.0045541 0.0135435 -0.0211915 0.0220499 -0.0223936 0.0257963
internal_weight=94.683 59.8532 35.4535 10.5085 24.945 34.8298 24.6254 17.235 24.3997 17.8338 11.3311 11.7368 19.9579 10.2044 14.6891
internal_count=408 256 154 44 110 152 106 75 102 75 48 52 89 46 67
is_linear=0
shrinkage=0.02


Tree=47
num_leaves=17
num_cat=0
split_feature=0 77 31 49 12 38 25 56 46 64 32 25 42 33 63 58
split_gain=11.5598 6.95453 5.88881 7.85224 6.45104 7.39691 4.57131 4.19748 5.7531 3.75616 3.74713 3.1614 3.59731 2.88411 0.407342 0.206574
threshold=-2.7499999999999996 23.375000000000004 6.2262500000000012 18.291666666666668 8.5000000000000018 3.2916666666666674 217.62500000000003 89.262500000000017 5.8750000000000009 3.7625000000000006 0.87500000000000011 186.62500000000003 4.291666666666667 22.875000000000004 115.12500000000001 6.6875000000000018
decision_type=2 2 2 2 10 2 2 2 2 2 2 2 2 2 2 2
left_child=1 7 4 -4 5 6 11 8 10 -5 -1 12 -2 -6 -3 -11
right_child=2 14 3 9 13 -7 -8 -9 -10 15 -12 -13 -14 -15 -16 -17
leaf_value=0.030039589718768439 0.002668641811302574 0.029172885069918348 0.007284602294408896 -0.0071237608208862529 -2.312994452364678e-05 0.01156924872772498 0.0041690111726787266 -0.0096009771968248031 -0.0092189744644585441 -0.03345162932417458 0.0070820332325554356 -0.02771598164884681 -0.021633837515156275 0.020125024561867311 0.017472066463469035 -0.022828080739436298
leaf_weight=4.5417804419994416 4.6763433068990796 4.4169688373804075 4.6644067317247417 4.9841837435960761 4.7491136193275434 6.6348990052938452 4.9014437645673743 7.1589226722717276 5.1375917196273795 5.463863790035246 8.4185388535261136 6.9931942820549002 4.6738470643758774 6.3143074959516525 4.5053895264863968 4.4350549727678299
leaf_count=20 20 20 20 21 20 28 21 30 22 23 37 31 20 26 20 20
internal_value=-0.000566052 0.00863575 -0.00598285 -0.0149209 -0.00141844 -0.00658893 -0.0123812 0.0031466 0.00832406 -0.0220158 0.0154488 -0.0174614 -0.0093681 0.0113743 0.0237453 -0.0291678
internal_weight=92.6698 34.1792 58.4907 19.5475 38.9431 27.8797 21.2448 25.2568 18.0979 14.8831 12.9603 16.3434 9.35019 11.0634 8.92236 9.89892
internal_count=399 149 250 84 166 120 92 109 79 64 57 71 40 46 40 43
is_linear=0
shrinkage=0.02


Tree=48
num_leaves=14
num_cat=0
split_feature=0 11 63 64 24 78 36 31 72 64 41 43 34
split_gain=10.7283 6.10572 6.25285 5.8183 9.76416 8.3739 5.38679 4.49926 3.84287 3.20314 2.28977 2.22309 1.28307
threshold=-2.7499999999999996 49.500000000000007 96.000000000000014 3.9875000000000007 62.187500000000007 17.625000000000004 9.2916666666666696 5.6250000000000009 35.287500000000009 3.6875000000000004 13.125000000000002 43.675000000000004 119.87500000000001
decision_type=2 10 2 2 2 2 2 2 2 2 2 2 2
left_child=1 10 -3 5 6 -2 -5 -6 -7 -10 -1 -4 -9
right_child=3 2 11 4 7 8 -8 12 9 -11 -12 -13 -14
leaf_value=-0.012755304797794402 0.023069436649484607 0.00034198220397096225 0.027650458292888872 -0.0076571107385488566 -0.0068049436705424826 -0.014968877425327043 0.018488935661178825 -0.030962499560715572 -0.0060450854482201749 0.014759894302238091 0.0054337996835462123 0.010637352975588852 -0.016059791494983627
leaf_weight=5.8162657022476179 5.4784166663885143 9.0297068506479281 9.436351075768469 8.0037021487951261 7.764847248792651 8.3006337732076663 5.0229420661926261 9.2062627524137479 6.8580389022827131 4.9824360907077789 4.9410441815853119 5.5016154646873465 4.5281738787889472
leaf_count=24 23 39 43 35 34 35 21 41 29 21 21 24 20
internal_value=-0.000706612 0.00810686 0.0137277 -0.00583328 -0.011186 0.00131795 0.00233623 -0.0194447 -0.00458442 0.00259238 -0.00424339 0.02163 -0.0263453
internal_weight=94.8704 34.725 23.9677 60.1455 34.5259 25.6195 13.0266 21.4993 20.1411 11.8405 10.7573 14.938 13.7344
internal_count=410 151 106 259 151 108 56 95 85 50 45 67 61
is_linear=0
shrinkage=0.02


Tree=49
num_leaves=16
num_cat=0
split_feature=15 48 67 12 64 59 58 54 29 27 59 69 25 39 49
split_gain=7.78735 7.95009 5.42768 4.86999 7.62742 4.98295 5.55359 5.52052 4.12588 4.90754 2.76551 2.34754 2.28653 1.4588 1.82655
threshold=1.0000000180025095e-35 18.291666666666668 3.1250000000000004 5.5000000000000009 4.6875000000000009 6.3325000000000005 7.5875000000000012 216.12500000000003 6.0875000000000012 93.225000000000009 5.628750000000001 20.375000000000004 180.12500000000003 8.5833333333333339 19.875000000000004
decision_type=2 2 2 10 2 2 2 2 2 2 2 2 2 2 2
left_child=3 -2 13 8 5 7 -7 -5 12 -10 -4 -11 -1 -3 -15
right_child=1 2 10 4 -6 6 -8 -9 9 11 -12 -13 -14 14 -16
leaf_value=-0.0078919897236417944 -0.0074520478014803784 0.029084011597673438 0.013445258982281761 0.0098524889205990635 -0.017560962562102361 0.029553962606694389 0.0010195432679494011 -0.017840507836037064 0.0075621866480143612 -0.0024384530203549778 -0.0076382262326627247 -0.020972446583101191 -0.027571478866113951 0.02422580441250995 0.0060285085051462019
leaf_weight=4.8004620522260684 8.8328283280134183 6.5774582028389039 4.6091470271348935 7.0783009976148659 5.7800881564617148 6.3614831268787366 4.9944975525140762 4.6917062401771545 9.0103171318769473 5.7080456316471082 5.090476781129837 5.7434400469064713 5.6466659158468246 4.9322736710309965 4.7353158295154572
leaf_count=21 37 29 20 31 25 27 21 20 39 25 22 26 25 22 21
internal_value=0.00119931 0.00872682 0.0143191 -0.0031512 0.00269372 0.00789608 0.0172972 -0.00107518 -0.00867293 -0.00329835 0.00221128 -0.0120083 -0.0188789 0.0213684 0.0156703
internal_weight=94.5925 34.7775 25.9447 59.815 28.9061 23.126 11.356 11.77 30.9089 20.4618 9.69962 11.4515 10.4471 16.245 9.66759
internal_count=411 151 114 260 124 99 48 51 136 90 42 51 46 72 43
is_linear=0
shrinkage=0.02


Tree=50
num_leaves=15
num_cat=0
split_feature=0 11 1 1 47 58 74 13 6 61 63 65 52 64
split_gain=14.3474 5.79377 5.45451 5.34087 6.0254 6.54672 4.10544 5.25132 8.28108 5.16781 3.37271 1.50397 1.00624 0.038139
threshold=1.2500000000000002 47.500000000000007 44.750000000000007 44.750000000000007 44.837500000000013 7.0125000000000011 13.583333333333334 1.0000000180025095e-35 1.0000000180025095e-35 0.70833333333333337 118.75000000000001 9.1250000000000018 34.416666666666679 3.8375000000000008
decision_type=2 8 2 2 2 2 2 2 2 2 2 2 2 2
left_child=2 -2 6 4 5 12 7 8 -1 -8 13 -5 -3 -4
right_child=1 3 10 11 -6 -7 9 -9 -10 -11 -12 -13 -14 -15
leaf_value=-0.015579110876309386 0.0059790801205291148 -0.030041166203411022 0.020030556661421662 -0.01405628262378928 0.0099029794481729737 0.0022282800336723219 -0.0024574975978998133 -0.019761707856096444 0.01937645387734405 0.020458736438690252 0.0033294431709850769 -0.028909524002537816 -0.015025349497604082 0.028839865903166718
leaf_weight=4.7278565019369179 8.4269796311855298 4.9600170999765449 4.3078432381153089 6.1523835957050306 6.4470651596784583 6.6602300554513922 6.9747973382472983 5.6314354240894309 6.0229171067476273 8.486343637108801 4.5729317069053641 7.1249026507139206 4.5742700695991516 4.5753298401832581
leaf_count=20 35 22 20 28 27 28 29 23 26 37 20 33 20 21
internal_value=-0.000634948 -0.00873226 0.00724962 -0.0122462 -0.00617117 -0.0127146 0.00264353 -0.00423707 0.00381786 0.0100429 0.0179023 -0.0223329 -0.0232753 0.025061
internal_weight=89.6453 44.3458 45.2995 35.9189 22.6416 16.1945 31.8434 16.3822 10.7508 15.4611 13.4561 13.2773 9.53429 8.88317
internal_count=389 193 196 158 97 70 135 69 46 66 61 61 42 41
is_linear=0
shrinkage=0.02


Tree=51
num_leaves=15
num_cat=0
split_feature=0 77 56 56 77 67 72 33 54 67 48 23 36 36
split_gain=10.7177 7.56561 6.89362 3.94609 8.2842 4.92197 5.50083 4.44825 4.15199 3.79562 3.06665 2.93865 2.81439 2.35813
threshold=-2.7499999999999996 23.125000000000004 89.387500000000017 80.012500000000003 20.375000000000004 3.8750000000000004 43.275000000000006 26.583333333333339 241.87500000000003 3.1250000000000004 23.583333333333339 33.291666666666679 8.2916666666666696 9.2916666666666696
decision_type=2 2 2 2 2 2 2 2 2 2 2 2 2 2
left_child=1 2 9 13 11 7 -7 12 -9 10 -1 -5 -6 -2
right_child=3 -3 -4 4 5 6 -8 8 -10 -11 -12 -13 -14 -15
leaf_value=0.0043364382035033788 -0.027331432815835496 0.025003045068145852 -0.014015486236100681 0.00034568487146532278 -0.0070834392417314243 -0.012580717057815168 0.016951138225439463 -0.016726097147053528 0.0068175062025846722 -0.003606192354369877 0.026207865286829876 0.021046639649458757 -0.027366626174907066 -0.0071480748729519381
leaf_weight=4.9715000092983335 4.8177503347396833 8.2880992144346219 6.7794535160064688 5.4225659817457181 4.5069991201162365 4.4382643997669202 5.5046446174383163 5.3135254532098752 6.4885789006948471 5.3841137737035742 5.9437699913978577 5.9092919677495956 8.8389637470245344 5.2131813317537308
leaf_count=22 21 38 28 23 20 20 23 23 28 23 27 25 39 22
internal_value=-0.00062632 0.00870498 0.00268309 -0.00585258 -0.00332304 -0.00815498 0.00357571 -0.012868 -0.00366569 0.00979365 0.0165576 0.0114054 -0.0207693 -0.0172134
internal_weight=87.8207 31.3669 23.0788 56.4538 46.4228 35.091 9.94291 25.1481 11.8021 16.2994 10.9153 11.3319 13.346 10.0309
internal_count=382 138 100 244 201 153 43 110 51 72 49 48 59 43
is_linear=0
shrinkage=0.02


Tree=52
num_leaves=15
num_cat=0
split_feature=0 63 29 58 50 7 77 41 24 77 59 31 46 35
split_gain=14.228 5.15652 5.27038 5.73367 6.08952 5.6344 6.00879 4.03386 6.00163 2.633 3.90714 2.48407 2.46117 1.27308
threshold=-2.7499999999999996 81.375000000000014 6.9875000000000016 6.9375000000000009 1.1250000000000002 7.5000000000000009 26.375000000000004 12.29166666666667 66.25833333333334 22.125000000000004 5.3937500000000016 7.2575000000000012 5.291666666666667 3.912500000000001
decision_type=2 2 2 2 2 2 2 2 2 2 2 2 2 2
left_child=7 -2 3 4 12 6 -5 8 -1 10 -9 -4 -3 -6
right_child=1 2 11 5 13 -7 -8 9 -10 -11 -12 -13 -14 -15
leaf_value=0.019616303149784173 0.010064506212893905 -0.010659687853216937 -0.027033484271396419 0.011389958810602053 -0.030649350076237241 0.021908289975447231 -0.016648661991272389 0.020242967929849285 -0.0081014247736186668 0.028331240831893728 -0.00029611996832412283 -0.0094605456959314209 0.0081507783896813107 -0.014008091430382759
leaf_weight=4.9020053744316092 7.5735963582992545 5.080504924058916 6.5025298744440061 5.9619620144367236 4.4922732114791852 5.3138730973005286 6.0175049751996994 8.7922748029232043 8.1464023739099485 5.7535423934459677 6.0217346251010886 7.5731333047151566 5.8847178071737289 4.6841221749782562
leaf_count=22 32 22 29 25 20 22 27 39 35 27 26 33 25 21
internal_value=0.000744514 -0.00514079 -0.00743034 -0.00342089 -0.0106814 0.00493326 -0.00255001 0.0111326 0.00222941 0.016646 0.0118139 -0.0178532 -0.000401479 -0.0226129
internal_weight=92.7002 59.0842 51.5106 37.435 20.1416 17.2933 11.9795 33.616 13.0484 20.5676 14.814 14.0757 10.9652 9.1764
internal_count=405 256 224 162 88 74 52 149 57 92 65 62 47 41
is_linear=0
shrinkage=0.02


Tree=53
num_leaves=15
num_cat=0
split_feature=0 39 77 67 11 53 11 25 45 70 53 38 77 58
split_gain=13.5696 5.84263 6.54527 6.44302 5.75251 5.63991 4.83807 5.81968 4.23712 3.74698 3.68623 2.57163 1.33794 0.649133
threshold=2.7500000000000004 11.125000000000002 22.875000000000004 3.5833333333333335 47.500000000000007 63.800000000000004 60.000000000000007 174.75000000000003 13.583333333333334 13.41666666666667 70.012500000000017 3.1250000000000004 26.125000000000004 6.9375000000000009
decision_type=2 2 2 2 8 2 10 2 2 2 2 2 2 2
left_child=1 2 3 4 -1 9 7 -2 -9 -6 12 13 -4 -8
right_child=6 -3 10 -5 5 -7 11 8 -10 -11 -12 -13 -14 -15
leaf_value=-0.013548458298733563 0.016586511969321323 0.022361886936811404 0.028778832650026995 -0.016327888331777445 0.0030789626192535349 -0.004138667532592539 -0.01559076873407359 0 -0.02315482406011905 0.025208638771185191 0 -0.0044665489636666602 0.013059908002453758 -0.028333675216417713
leaf_weight=5.5935289412736937 4.7876051515340832 8.4938771128654462 5.5892670750617963 7.776487559080123 5.233609706163409 7.9597150683403006 4.275267228484152 7.8977157622575742 5.0136236995458603 8.2460351288318616 4.6137483417987815 4.5639302283525458 5.0436331927776337 5.7060597538948059
leaf_count=23 20 39 25 33 23 34 20 34 22 36 20 20 22 27
internal_value=0.0013101 0.00706344 0.0043882 -0.000351976 0.00421331 0.00898159 -0.00906469 -0.00188986 -0.00896955 0.0168498 0.0152725 -0.0175861 0.0217002 -0.0232827
internal_weight=90.7941 58.5499 50.056 34.8094 27.0329 21.4394 32.2442 17.6989 12.9113 13.4796 15.2466 14.5453 10.6329 9.98133
internal_count=398 255 216 149 116 93 143 76 56 59 67 67 47 47
is_linear=0
shrinkage=0.02


Tree=54
num_leaves=16
num_cat=0
split_feature=0 32 72 37 33 27 43 48 31 39 67 74 64 53 47
split_gain=12.7213 4.22892 6.72144 6.32606 4.94865 3.98181 3.80558 4.36595 7.80509 3.0417 2.9075 2.3053 3.18741 2.28651 0.0254512
threshold=-1.2499999999999998 0.70833333333333337 44.737500000000004 1.8750000000000002 24.375000000000004 91.825000000000003 48.112500000000004 20.125000000000004 5.1025000000000009 8.8750000000000018 2.8750000000000004 13.41666666666667 4.0125000000000011 61.662500000000009 37.462500000000006
decision_type=2 2 2 2 2 2 2 2 2 2 2 2 2 2 2
left_child=6 3 11 -2 -5 -4 7 8 -1 10 -9 14 -13 -11 -3
right_child=1 2 5 4 -6 -7 -8 9 -10 13 -12 12 -14 -15 -16
leaf_value=0.016728533726300201 -0.018936275094249489 -0.02945939625665769 0.013909267315186912 -0.0052072737664197802 0.018842124996175311 -0.011143506128896431 -0.003475017912209459 0.018646358979626503 -0.016618192033473117 0.010156806916738211 -0.0014940832451112798 0.00098553324319075358 -0.020239152870633718 0.028860630779614604 -0.020700924755070512
leaf_weight=5.7871421128511411 4.5664107203483608 4.3946954905986839 5.3508827835321409 5.994008392095564 7.478681281208992 4.6015103161334991 8.4251081943511945 5.2238416522741336 5.2574595063924789 4.5378177613019934 5.8245262950658798 4.6737475246191007 6.4339866042137146 8.5237780660390836 4.5347782671451569
leaf_count=25 20 20 22 26 31 20 36 24 22 20 25 20 30 40 21
internal_value=0.000550366 -0.0065193 -0.0111157 0.00103097 0.00803564 0.00213148 0.00838465 0.0112854 0.000668661 0.0160435 0.00793107 -0.0177727 -0.011201 0.0226411 -0.0255115
internal_weight=91.6084 48.0287 29.9896 18.0391 13.4727 9.95239 43.5797 35.1546 11.0446 24.11 11.0484 20.0372 11.1077 13.0616 8.92947
internal_count=402 210 133 77 57 42 192 156 47 109 49 91 50 60 41
is_linear=0
shrinkage=0.02


Tree=55
num_leaves=16
num_cat=0
split_feature=0 11 54 31 0 59 49 43 43 11 12 38 40 39 27
split_gain=9.41479 5.23069 4.82643 5.1917 4.73479 5.03653 6.64265 5.36332 3.66294 3.30152 2.53252 4.3495 3.29897 1.65234 0.317711
threshold=-2.7499999999999996 61.500000000000007 174.75000000000003 6.7112500000000006 7.7500000000000009 7.167083333333335 24.291666666666668 36.225000000000009 43.275000000000006 69.500000000000014 11.500000000000002 3.1250000000000004 17.875000000000004 8.1250000000000018 93.225000000000009
decision_type=2 10 2 2 2 2 2 2 2 10 8 2 2 2 2
left_child=1 2 -1 -4 5 6 10 -8 14 -7 11 12 -2 -14 -3
right_child=4 8 3 -5 -6 9 7 -9 -10 -11 -12 -13 13 -15 -16
leaf_value=-0.016932539008326274 -0.00096037609471668771 0.017348392851870949 0.01670353173870967 -0.0086846366498821003 -0.019233174178894627 0.021527245932961386 0.020046156735190758 -0.0066673521496918089 0.0047788167590587464 -0.00130407537163207 -0.025204252968284699 0.0026731449466934928 -0.030313212810840977 -0.012451874627191849 0.027969140822076605
leaf_weight=4.754254654049876 4.6843350529670778 4.3121061474084872 7.8332209736108762 5.230620950460434 8.3733819425106031 4.7688162177801114 5.7276972085237485 5.983273446559906 7.6919255405664435 4.9398385137319565 4.6091451346874228 8.3145497143268567 4.8944784402847272 4.8629114925861359 5.3901450484991074
leaf_count=20 20 20 35 22 38 20 24 26 34 22 20 36 22 22 26
internal_value=-0.000357924 0.00774114 1.30851e-06 0.0063977 -0.00538706 -0.00293514 -0.00617016 0.00628768 0.0155099 0.00981173 -0.0115778 -0.0086321 -0.015252 -0.021831 0.023678
internal_weight=92.3707 35.2123 17.8181 13.0638 57.1584 48.785 39.0764 11.711 17.3942 9.70865 27.3654 22.7563 14.4417 9.75739 9.70225
internal_count=407 157 77 57 250 212 170 50 80 42 120 100 64 44 46
is_linear=0
shrinkage=0.02


Tree=56
num_leaves=15
num_cat=0
split_feature=69 66 58 54 23 54 55 23 23 60 63 30 4 54
split_gain=3.54444 5.80902 4.21382 5.51728 7.83627 5.41933 6.36565 6.8554 4.6347 6.34196 3.97636 3.17865 2.55441 2.18611
threshold=22.291666666666668 3.1250000000000004 6.9375000000000009 212.00000000000003 29.625000000000004 195.87500000000003 0.41666666666666669 35.875000000000007 31.875000000000004 7.535000000000001 95.125000000000014 6.1375000000000002 9.5000000000000018 235.00000000000003
decision_type=2 2 2 2 2 2 2 2 2 2 2 2 2 2
left_child=2 -2 3 4 -1 6 -6 11 -4 12 13 -8 -10 -5
right_child=1 -3 8 10 5 -7 7 -9 9 -11 -12 -13 -14 -15
